{"learner":{"attributes":{"scikit_learn":"{\"_estimator_type\": \"classifier\"}"},"feature_names":["Vehicle_Age","Usage_Hours","Total_Miles","Failure_History","Predictive_Score","Impact_on_Efficiency","Downtime_Maintenance","Days_Since_Last_Maintenance","Weather_Conditions_Clear","Weather_Conditions_Rainy","Weather_Conditions_Snowy","Weather_Conditions_Windy","Road_Conditions_Highway","Road_Conditions_Rural","Road_Conditions_Urban"],"feature_types":["float","float","float","float","float","float","float","float","float","float","float","float","float","float","float"],"gradient_booster":{"model":{"gbtree_model_param":{"num_parallel_tree":"1","num_trees":"100"},"iteration_indptr":[0,1,2,3,4,5,6,7,8,9,10,11,12,13,14,15,16,17,18,19,20,21,22,23,24,25,26,27,28,29,30,31,32,33,34,35,36,37,38,39,40,41,42,43,44,45,46,47,48,49,50,51,52,53,54,55,56,57,58,59,60,61,62,63,64,65,66,67,68,69,70,71,72,73,74,75,76,77,78,79,80,81,82,83,84,85,86,87,88,89,90,91,92,93,94,95,96,97,98,99,100],"tree_info":[0,0,0,0,0,0,0,0,0,0,0,0,0,0,0,0,0,0,0,0,0,0,0,0,0,0,0,0,0,0,0,0,0,0,0,0,0,0,0,0,0,0,0,0,0,0,0,0,0,0,0,0,0,0,0,0,0,0,0,0,0,0,0,0,0,0,0,0,0,0,0,0,0,0,0,0,0,0,0,0,0,0,0,0,0,0,0,0,0,0,0,0,0,0,0,0,0,0,0,0],"trees":[{"base_weights":[-0E0,-7.0661676E-1,1.9997378E-1,-8.46543E-1,1.671548E-2,-5.519539E-1,-1.9994567E-1,3.1476998E-1,-4.7375273E-2,-8.10844E-1,-2.1539444E-1,3.4505862E-1,-4.680851E-1,-1.9894737E-1,8.970192E-2,-1.8755265E-2,-1.9992861E-1,2.7846817E-2,-3.0754665E-2,-1.1304348E-1,3.588012E-2,8.148148E-2,-9.295775E-2,3.2949515E-2,2.6071637E-3],"categories":[],"categories_nodes":[],"categories_segments":[],"categories_sizes":[],"default_left":[0,0,0,0,0,0,0,0,0,0,0,0,0,0,0,0,0,0,0,0,0,0,0,0,0],"id":0,"left_children":[1,3,-1,5,7,9,-1,11,13,15,17,19,21,-1,23,-1,-1,-1,-1,-1,-1,-1,-1,-1,-1],"loss_changes":[4.127867E4,2.1847256E3,0E0,6.1417188E3,6.686902E1,1.2551348E3,0E0,1.4850864E1,7.6721735E2,6.031331E3,2.8522046E2,1.2511002E1,1.4670573E1,0E0,4.1070057E1,0E0,0E0,0E0,0E0,0E0,0E0,0E0,0E0,0E0,0E0],"parents":[2147483647,0,0,1,1,3,3,4,4,5,5,7,7,8,8,9,9,10,10,11,11,12,12,14,14],"right_children":[2,4,-1,6,8,10,-1,12,14,16,18,20,22,-1,24,-1,-1,-1,-1,-1,-1,-1,-1,-1,-1],"split_conditions":[1.6823369E0,1.8515848E0,1.9997378E-1,-5.9754467E-1,-2.103737E0,1.2888968E0,-1.9994567E-1,9.340384E-1,5.219843E-1,-8.6117613E-1,-2.103737E0,-6.130305E0,-6.9291365E-1,-1.9894737E-1,-1.0223444E0,-1.8755265E-2,-1.9992861E-1,2.7846817E-2,-3.0754665E-2,-1.1304348E-1,3.588012E-2,8.148148E-2,-9.295775E-2,3.2949515E-2,2.6071637E-3],"split_indices":[3,14,0,14,8,12,0,0,8,12,8,0,4,0,5,0,0,0,0,0,0,0,0,0,0],"split_type":[0,0,0,0,0,0,0,0,0,0,0,0,0,0,0,0,0,0,0,0,0,0,0,0,0],"sum_hessian":[2.92105E4,2.158425E4,7.62625E3,1.80855E4,3.49875E3,1.4406E4,3.6795E3,6.185E2,2.88025E3,8.14175E3,6.26425E3,5.96E2,2.25E1,1.89E2,2.69125E3,5.3415E3,2.80025E3,9.8475E2,5.2795E3,4.75E0,5.9125E2,5.75E0,1.675E1,5.635E2,2.12775E3],"tree_param":{"num_deleted":"0","num_feature":"15","num_nodes":"25","size_leaf_vector":"1"}},{"base_weights":[5.3377576E-6,-6.382171E-1,1.8185113E-1,-7.649518E-1,1.4947046E-2,-4.979304E-1,-1.8182762E-1,2.8326607E-1,-4.2766612E-2,-7.325578E-1,-1.9390182E-1,3.105332E-1,-4.2262277E-1,-1.8099217E-1,8.0750294E-2,-1.688161E-2,-1.8181333E-1,-5.3443115E-2,-8.432829E-3,-1.039889E-1,3.230893E-2,7.4649744E-2,-8.436372E-2,2.9668728E-2,2.3465797E-3],"categories":[],"categories_nodes":[],"categories_segments":[],"categories_sizes":[],"default_left":[0,0,0,0,0,0,0,0,0,0,0,0,0,0,0,0,0,0,0,0,0,0,0,0,0],"id":1,"left_children":[1,3,-1,5,7,9,-1,11,13,15,17,19,21,-1,23,-1,-1,-1,-1,-1,-1,-1,-1,-1,-1],"loss_changes":[3.3736953E4,1.7811377E3,0E0,5.0674756E3,5.417301E1,1.0254397E3,0E0,1.205027E1,6.2860706E2,4.965629E3,2.3367653E2,1.0455227E1,1.2174379E1,0E0,3.3293804E1,0E0,0E0,0E0,0E0,0E0,0E0,0E0,0E0,0E0,0E0],"parents":[2147483647,0,0,1,1,3,3,4,4,5,5,7,7,8,8,9,9,10,10,11,11,12,12,14,14],"right_children":[2,4,-1,6,8,10,-1,12,14,16,18,20,22,-1,24,-1,-1,-1,-1,-1,-1,-1,-1,-1,-1],"split_conditions":[1.6823369E0,1.8515848E0,1.8185113E-1,-5.9754467E-1,-2.103737E0,1.2888968E0,-1.8182762E-1,9.340384E-1,5.219843E-1,-8.6117613E-1,5.219843E-1,-6.130305E0,-6.9291365E-1,-1.8099217E-1,-1.0223444E0,-1.688161E-2,-1.8181333E-1,-5.3443115E-2,-8.432829E-3,-1.039889E-1,3.230893E-2,7.4649744E-2,-8.436372E-2,2.9668728E-2,2.3465797E-3],"split_indices":[3,14,0,14,8,12,0,0,8,12,8,0,4,0,5,0,0,0,0,0,0,0,0,0,0],"split_type":[0,0,0,0,0,0,0,0,0,0,0,0,0,0,0,0,0,0,0,0,0,0,0,0,0],"sum_hessian":[2.906626E4,2.1515748E4,7.5505127E3,1.8019264E4,3.4964844E3,1.4376295E4,3.6429688E3,6.182489E2,2.8782356E3,8.113484E3,6.2628105E3,5.957946E2,2.2454334E1,1.8714209E2,2.6910935E3,5.341031E3,2.772453E3,1.5236816E3,4.7391294E3,4.734857E0,5.9105975E2,5.7404666E0,1.6713867E1,5.633471E2,2.1277463E3],"tree_param":{"num_deleted":"0","num_feature":"15","num_nodes":"25","size_leaf_vector":"1"}},{"base_weights":[5.7835892E-5,-5.797868E-1,1.682386E-1,1.0619988E-1,-6.8079567E-1,-4.962E-3,3.0408674E-1,-1.7598729E0,-4.6331245E-1,1.9172297E-1,-1.6735774E-1,4.1599604E-1,2.2863454E-1,-1.7290702E0,-1.960179E-1,-6.34045E-1,-7.623567E-2,2.1249766E-2,-7.249895E-2,4.389512E-2,-8.746108E-2,1.2026336E-1,2.1193154E-2,-1.6819894E-1,-1.9156907E-1,-2.419036E-2,-1.6820873E-1,2.667051E-2,-1.5545437E-2],"categories":[],"categories_nodes":[],"categories_segments":[],"categories_sizes":[],"default_left":[0,0,0,0,0,0,0,0,0,0,0,0,0,0,0,0,0,0,0,0,0,0,0,0,0,0,0,0,0],"id":2,"left_children":[1,3,-1,5,7,9,11,13,15,17,-1,19,21,23,-1,25,27,-1,-1,-1,-1,-1,-1,-1,-1,-1,-1,-1,-1],"loss_changes":[2.7994504E4,1.478876E3,0E0,6.0275856E1,4.364948E3,5.76451E2,8.227005E0,1.5861328E1,1.02322925E3,3.0077816E1,0E0,1.2106529E1,9.358355E0,2.0612305E1,0E0,4.415369E3,1.2882529E2,0E0,0E0,0E0,0E0,0E0,0E0,0E0,0E0,0E0,0E0,0E0,0E0],"parents":[2147483647,0,0,1,1,3,3,4,4,5,5,6,6,7,7,8,8,9,9,11,11,12,12,13,13,15,15,16,16],"right_children":[2,4,-1,6,8,10,12,14,16,18,-1,20,22,24,-1,26,28,-1,-1,-1,-1,-1,-1,-1,-1,-1,-1,-1,-1],"split_conditions":[1.6823369E0,-2.103737E0,1.682386E-1,1.2888968E0,5.219843E-1,-8.6117613E-1,-2.835423E-1,1.4300877E0,1.2888968E0,1.4319674E0,-1.6735774E-1,3.8729116E-1,-1.8736515E0,1.2888968E0,-1.960179E-1,-8.6117613E-1,-1.0282655E0,2.1249766E-2,-7.249895E-2,4.389512E-2,-8.746108E-2,1.2026336E-1,2.1193154E-2,-1.6819894E-1,-1.9156907E-1,-2.419036E-2,-1.6820873E-1,2.667051E-2,-1.5545437E-2],"split_indices":[3,8,0,12,8,12,7,13,12,0,0,2,0,12,0,12,5,0,0,0,0,0,0,0,0,0,0,0,0],"split_type":[0,0,0,0,0,0,0,0,0,0,0,0,0,0,0,0,0,0,0,0,0,0,0,0,0,0,0,0,0],"sum_hessian":[2.8695924E4,2.1341014E4,7.354909E3,2.7390576E3,1.8601957E4,1.754469E3,9.845886E2,3.119076E3,1.5482881E4,1.5702623E3,1.8420668E2,3.9468533E2,5.899033E2,2.7117053E3,4.0737064E2,1.0743485E4,4.739395E3,1.5362166E3,3.404577E1,3.8843634E2,6.2489758E0,8.748567E0,5.811548E2,2.17341E3,5.382954E2,7.8190835E3,2.9244016E3,8.889087E2,3.8504863E3],"tree_param":{"num_deleted":"0","num_feature":"15","num_nodes":"29","size_leaf_vector":"1"}},{"base_weights":[2.069725E-4,-5.2814525E-1,1.5766905E-1,-6.398363E-1,3.7348002E-2,-4.0429097E-1,-1.6067863E0,-1.6464154E-1,9.687711E-2,1.8049575E-1,-4.9853927E-1,-1.6385292E-1,-1.5761487E-1,2.3668283E-1,-1.5690835E-1,2.912472E-1,4.530294E-2,1.3800541E-2,4.5915734E-2,-1.6803549E-1,-2.998958E-2,2.1251734E-2,9.789362E-2,2.3621354E-2,5.5904187E-2,1.5810492E-3,2.9170593E-2],"categories":[],"categories_nodes":[],"categories_segments":[],"categories_sizes":[],"default_left":[0,0,0,0,0,0,0,0,0,0,0,0,0,0,0,0,0,0,0,0,0,0,0,0,0,0,0],"id":3,"left_children":[1,3,-1,5,7,9,11,13,15,17,19,-1,-1,21,-1,23,25,-1,-1,-1,-1,-1,-1,-1,-1,-1,-1],"loss_changes":[2.3487396E4,1.3339722E3,0E0,4.0162734E3,4.191272E1,7.8180347E2,7.7734375E-1,4.4762213E2,2.697114E1,2.3254417E1,2.867075E3,0E0,0E0,1.0877399E1,0E0,8.184326E0,1.5463642E1,0E0,0E0,0E0,0E0,0E0,0E0,0E0,0E0,0E0,0E0],"parents":[2147483647,0,0,1,1,3,3,4,4,5,5,6,6,7,7,8,8,9,9,10,10,13,13,15,15,16,16],"right_children":[2,4,-1,6,8,10,12,14,16,18,20,-1,-1,22,-1,24,26,-1,-1,-1,-1,-1,-1,-1,-1,-1,-1],"split_conditions":[1.6823369E0,1.8515848E0,1.5766905E-1,-5.9754467E-1,5.219843E-1,-2.103737E0,-8.6117613E-1,-2.103737E0,-1.0223444E0,6.002385E0,5.219843E-1,-1.6385292E-1,-1.5761487E-1,2.4773183E0,-1.5690835E-1,1.1476309E0,1.6170868E0,1.3800541E-2,4.5915734E-2,-1.6803549E-1,-2.998958E-2,2.1251734E-2,9.789362E-2,2.3621354E-2,5.5904187E-2,1.5810492E-3,2.9170593E-2],"split_indices":[3,14,0,14,8,8,12,8,5,10,8,0,0,1,0,7,5,0,0,0,0,0,0,0,0,0,0],"split_type":[0,0,0,0,0,0,0,0,0,0,0,0,0,0,0,0,0,0,0,0,0,0,0,0,0,0,0],"sum_hessian":[2.8196234E4,2.1118963E4,7.0772725E3,1.7635607E4,3.483354E3,1.4182277E4,3.4533306E3,7.925088E2,2.690845E3,1.968336E3,1.2213941E4,1.6702921E3,1.7830385E3,6.1702356E2,1.7548524E2,5.6329205E2,2.127553E3,1.7092107E3,2.5912534E2,1.7564723E3,1.0457469E4,5.9881433E2,1.8209244E1,4.688269E2,9.4465126E1,1.901074E3,2.2647903E2],"tree_param":{"num_deleted":"0","num_feature":"15","num_nodes":"27","size_leaf_vector":"1"}},{"base_weights":[4.420351E-4,-4.8195797E-1,1.492539E-1,-6.3427395E-1,-1.24215506E-1,-2.7255502E-1,-1.5200286E-1,2.3082523E-1,-2.0380251E-1,-4.2625186E-1,3.3550307E-2,-6.321397E-1,2.623996E-1,2.3610745E-1,-2.812799E-1,-9.008936E-3,-1.5420859E-1,7.945317E-3,-1.9025533E-2,-1.0610645E-1,1.740292E-2,3.5230782E-2,1.6169349E-2,1.2644212E-1,2.2390155E-2,-1.6382076E-1,-1.1008435E-2],"categories":[],"categories_nodes":[],"categories_segments":[],"categories_sizes":[],"default_left":[0,0,0,0,0,0,0,0,0,0,0,0,0,0,0,0,0,0,0,0,0,0,0,0,0,0,0],"id":4,"left_children":[1,3,-1,5,7,9,-1,11,13,15,17,19,21,23,25,-1,-1,-1,-1,-1,-1,-1,-1,-1,-1,-1,-1],"loss_changes":[1.9876709E4,1.1370161E3,0E0,4.688894E3,1.7616888E2,4.8899628E2,0E0,3.1277584E1,1.7362163E2,2.595297E3,3.5715885E1,1.4222101E1,9.922874E0,9.294643E0,1.00568964E3,0E0,0E0,0E0,0E0,0E0,0E0,0E0,0E0,0E0,0E0,0E0,0E0],"parents":[2147483647,0,0,1,1,3,3,4,4,5,5,7,7,8,8,9,9,10,10,11,11,12,12,13,13,14,14],"right_children":[2,4,-1,6,8,10,-1,12,14,16,18,20,22,24,26,-1,-1,-1,-1,-1,-1,-1,-1,-1,-1,-1,-1],"split_conditions":[1.6823369E0,1.2888968E0,1.492539E-1,-8.6117613E-1,-1.0282655E0,1.8515848E0,-1.5200286E-1,-1.2967512E-2,-2.103737E0,-5.9754467E-1,-4.3661246E-1,4.1868564E-2,1.3441093E-1,-3.3069181E0,5.219843E-1,-9.008936E-3,-1.5420859E-1,7.945317E-3,-1.9025533E-2,-1.0610645E-1,1.740292E-2,3.5230782E-2,1.6169349E-2,1.2644212E-1,2.2390155E-2,-1.6382076E-1,-1.1008435E-2],"split_indices":[3,12,0,12,5,14,0,0,8,14,9,4,7,0,8,0,0,0,0,0,0,0,0,0,0,0,0],"split_type":[0,0,0,0,0,0,0,0,0,0,0,0,0,0,0,0,0,0,0,0,0,0,0,0,0,0,0],"sum_hessian":[2.7612688E4,2.0866994E4,6.745693E3,1.4635055E4,6.2319385E3,1.0392386E4,4.2426694E3,1.1408157E3,5.091123E3,6.918289E3,3.4740962E3,3.9595776E1,1.1012198E3,7.620755E2,4.3290474E3,5.317415E3,1.6008743E3,2.88336E3,5.907362E2,2.563853E1,1.3957245E1,5.8048083E2,5.20739E2,7.736148E0,7.5433936E2,4.840229E2,3.8450247E3],"tree_param":{"num_deleted":"0","num_feature":"15","num_nodes":"27","size_leaf_vector":"1"}},{"base_weights":[5.0230575E-4,-4.4178888E-1,1.424216E-1,6.626289E-2,-5.342658E-1,-4.3129787E-2,3.064815E-1,-6.329691E-1,-1.2497706E-2,1.1589125E-1,-1.4569715E-1,3.3435857E-1,-5.274565E-1,-4.2919385E-1,-1.4435975E-1,2.7216434E-1,-7.143208E-2,-5.563527E-2,1.4259569E-2,6.143523E-2,2.906848E-2,8.26435E-2,-8.341869E-2,-6.1685693E-2,-1.842877E-2,-3.211083E-3,3.355871E-2,-1.4789896E-1,3.3503787E-3],"categories":[],"categories_nodes":[],"categories_segments":[],"categories_sizes":[],"default_left":[0,0,0,0,0,0,0,0,0,0,0,0,0,0,0,0,0,0,0,0,0,0,0,0,0,0,0,0,0],"id":5,"left_children":[1,3,-1,5,7,9,11,13,15,17,-1,19,21,23,-1,25,27,-1,-1,-1,-1,-1,-1,-1,-1,-1,-1,-1,-1],"loss_changes":[1.6955174E4,9.6524634E2,0E0,8.317001E1,8.950835E2,4.8922012E2,2.319822E1,2.4136548E3,4.642034E1,3.5196957E1,0E0,1.1546776E1,1.415302E1,5.3673975E2,0E0,9.169823E0,3.3862018E2,0E0,0E0,0E0,0E0,0E0,0E0,0E0,0E0,0E0,0E0,0E0,0E0],"parents":[2147483647,0,0,1,1,3,3,4,4,5,5,6,6,7,7,8,8,9,9,11,11,12,12,13,13,15,15,16,16],"right_children":[2,4,-1,6,8,10,12,14,16,18,-1,20,22,24,-1,26,28,-1,-1,-1,-1,-1,-1,-1,-1,-1,-1,-1,-1],"split_conditions":[1.6823369E0,-1.0282655E0,1.424216E-1,1.4300877E0,1.8515848E0,-7.7561414E-1,4.660051E-2,-5.9754467E-1,-2.103737E0,-1.2967512E-2,-1.4569715E-1,-1.1017995E0,-7.2095853E-1,1.2888968E0,-1.4435975E-1,-8.1369144E-1,5.219843E-1,-5.563527E-2,1.4259569E-2,6.143523E-2,2.906848E-2,8.26435E-2,-8.341869E-2,-6.1685693E-2,-1.842877E-2,-3.211083E-3,3.355871E-2,-1.4789896E-1,3.3503787E-3],"split_indices":[3,5,0,13,14,13,0,14,8,0,0,4,1,12,0,1,8,0,0,0,0,0,0,0,0,0,0,0,0],"split_type":[0,0,0,0,0,0,0,0,0,0,0,0,0,0,0,0,0,0,0,0,0,0,0,0,0,0,0,0,0],"sum_hessian":[2.6923963E4,2.0542816E4,6.3811465E3,3.1634834E3,1.7379334E4,2.1741995E3,9.8928394E2,1.4614486E4,2.7648474E3,1.9552067E3,2.1899275E2,9.5786334E2,3.1420605E1,1.1679924E4,2.934562E3,4.736118E2,2.2912356E3,7.394402E1,1.8812627E3,1.2748526E2,8.3037805E2,5.4906836E0,2.592992E1,6.6119204E3,5.068004E3,8.177659E1,3.918352E2,1.5805608E2,2.1331794E3],"tree_param":{"num_deleted":"0","num_feature":"15","num_nodes":"29","size_leaf_vector":"1"}},{"base_weights":[8.6922763E-4,-4.0369835E-1,1.3678692E-1,-5.3328645E-1,-3.7527252E-2,-2.3225711E-1,-1.4215442E0,3.1972593E-1,-1.0839924E-1,-3.4936866E-1,2.8774679E-2,-1.3897657E-1,-1.4381437E-1,3.4012985E-1,-9.049046E-1,-1.6231593E-1,3.6837097E-2,-1.369969E-1,-9.967925E-3,6.7776726E-3,-1.6354647E-2,7.848914E-2,3.0733595E-2,1.0045089E-1,-1.2398305E-1,2.7509553E-2,-2.0080525E-3],"categories":[],"categories_nodes":[],"categories_segments":[],"categories_sizes":[],"default_left":[0,0,0,0,0,0,0,0,0,0,0,0,0,0,0,0,0,0,0,0,0,0,0,0,0,0,0],"id":6,"left_children":[1,3,-1,5,7,9,11,13,15,17,19,-1,-1,21,23,-1,25,-1,-1,-1,-1,-1,-1,-1,-1,-1,-1],"loss_changes":[1.4531096E4,9.620327E2,0E0,4.0038018E3,1.3424403E2,3.4195203E2,9.765625E-4,2.2239868E1,9.733222E2,1.967552E3,2.600267E1,0E0,0E0,1.2361679E1,1.0619161E1,0E0,5.4763542E1,0E0,0E0,0E0,0E0,0E0,0E0,0E0,0E0,0E0,0E0],"parents":[2147483647,0,0,1,1,3,3,4,4,5,5,6,6,7,7,8,8,9,9,10,10,13,13,14,14,16,16],"right_children":[2,4,-1,6,8,10,12,14,16,18,20,-1,-1,22,24,-1,26,-1,-1,-1,-1,-1,-1,-1,-1,-1,-1],"split_conditions":[1.6823369E0,1.4300877E0,1.3678692E-1,-7.7561414E-1,-2.103737E0,1.8515848E0,5.219843E-1,2.13012E0,5.219843E-1,1.2888968E0,-4.3661246E-1,-1.3897657E-1,-1.4381437E-1,-9.2859954E-1,-7.2095853E-1,-1.6231593E-1,-1.0282655E0,-1.369969E-1,-9.967925E-3,6.7776726E-3,-1.6354647E-2,7.848914E-2,3.0733595E-2,1.0045089E-1,-1.2398305E-1,2.7509553E-2,-2.0080525E-3],"split_indices":[3,13,0,13,8,14,8,0,8,12,9,0,0,1,1,0,5,0,0,0,0,0,0,0,0,0,0],"split_type":[0,0,0,0,0,0,0,0,0,0,0,0,0,0,0,0,0,0,0,0,0,0,0,0,0,0,0],"sum_hessian":[2.627276E4,2.0273473E4,5.999287E3,1.4973785E4,5.2996865E3,1.1184601E4,3.7891848E3,8.767308E2,4.422956E3,7.72048E3,3.4641206E3,1.3292167E3,2.459968E3,8.630731E2,1.3657646E1,3.8608276E2,4.036873E3,1.5166635E3,6.2038164E3,2.880594E3,5.8352673E2,5.7692646E1,8.053805E2,1.7398064E0,1.191784E1,7.7767505E2,3.259198E3],"tree_param":{"num_deleted":"0","num_feature":"15","num_nodes":"27","size_leaf_vector":"1"}},{"base_weights":[8.844879E-4,-3.708525E-1,1.320803E-1,-4.92328E-1,-3.4133673E-2,-2.1156587E-1,-1.3656908E-1,2.8775272E-1,-9.8243065E-2,1.8579423E-1,-2.8142154E-1,3.0692965E-1,-7.819391E-1,-1.5292458E-1,3.3156805E-2,8.535377E-3,2.5424743E-2,-1.431505E-1,-1.2996323E-2,7.075682E-2,2.7735088E-2,1.0378774E-1,-1.1217745E-1,2.4742227E-2,-1.8076235E-3],"categories":[],"categories_nodes":[],"categories_segments":[],"categories_sizes":[],"default_left":[0,0,0,0,0,0,0,0,0,0,0,0,0,0,0,0,0,0,0,0,0,0,0,0,0],"id":7,"left_children":[1,3,-1,5,7,9,-1,11,13,15,17,19,21,-1,23,-1,-1,-1,-1,-1,-1,-1,-1,-1,-1],"loss_changes":[1.2532375E4,8.151416E2,0E0,3.5908687E3,1.090812E2,3.0771536E2,0E0,1.8250084E1,8.288359E2,1.1376438E1,1.6419043E3,1.0033295E1,1.0901232E1,0E0,4.433079E1,0E0,0E0,0E0,0E0,0E0,0E0,0E0,0E0,0E0,0E0],"parents":[2147483647,0,0,1,1,3,3,4,4,5,5,7,7,8,8,9,9,10,10,11,11,12,12,14,14],"right_children":[2,4,-1,6,8,10,-1,12,14,16,18,20,22,-1,24,-1,-1,-1,-1,-1,-1,-1,-1,-1,-1],"split_conditions":[1.6823369E0,1.4300877E0,1.320803E-1,-7.7561414E-1,-2.103737E0,-2.103737E0,-1.3656908E-1,1.4319674E0,5.219843E-1,1.2888968E0,5.219843E-1,-9.2859954E-1,-7.2095853E-1,-1.5292458E-1,-1.0282655E0,8.535377E-3,2.5424743E-2,-1.431505E-1,-1.2996323E-2,7.075682E-2,2.7735088E-2,1.0378774E-1,-1.1217745E-1,2.4742227E-2,-1.8076235E-3],"split_indices":[3,13,0,13,8,8,0,0,8,12,8,1,1,0,5,0,0,0,0,0,0,0,0,0,0],"split_type":[0,0,0,0,0,0,0,0,0,0,0,0,0,0,0,0,0,0,0,0,0,0,0,0,0],"sum_hessian":[2.5539744E4,1.9928012E4,5.6117334E3,1.4644399E4,5.2836113E3,1.108282E4,3.5615798E3,8.7696674E2,4.4066445E3,1.6567976E3,9.426022E3,8.622223E2,1.4744452E1,3.6970926E2,4.0369353E3,6.7241656E2,9.843811E2,1.0959076E3,8.330115E3,5.770456E1,8.0451776E2,1.9969162E0,1.2747536E1,7.782653E2,3.25867E3],"tree_param":{"num_deleted":"0","num_feature":"15","num_nodes":"25","size_leaf_vector":"1"}},{"base_weights":[9.560092E-4,-3.4043267E-1,1.2810713E-1,-4.5399427E-1,-3.1106666E-2,-1.9214943E-1,-1.3190375E-1,2.5917512E-1,-8.9146055E-2,-2.987076E-1,4.0896144E-2,2.8197756E-1,-4.9127892E-1,-1.4536165E-1,2.9847223E-2,-1.3068593E-1,-7.3170178E-3,1.9280607E-2,1.6611595E-4,3.1494685E-2,4.1938634E-4,1.28332E-1,-7.9617046E-2,2.226269E-2,-1.6271716E-3],"categories":[],"categories_nodes":[],"categories_segments":[],"categories_sizes":[],"default_left":[0,0,0,0,0,0,0,0,0,0,0,0,0,0,0,0,0,0,0,0,0,0,0,0,0],"id":8,"left_children":[1,3,-1,5,7,9,-1,11,13,15,17,19,21,-1,23,-1,-1,-1,-1,-1,-1,-1,-1,-1,-1],"loss_changes":[1.0851843E4,6.886135E2,0E0,3.2476829E3,8.873343E1,2.733857E2,0E0,1.5156349E1,7.126201E2,1.7176101E3,2.059238E1,7.8049164E0,1.5221515E1,0E0,3.5902283E1,0E0,0E0,0E0,0E0,0E0,0E0,0E0,0E0,0E0,0E0],"parents":[2147483647,0,0,1,1,3,3,4,4,5,5,7,7,8,8,9,9,10,10,11,11,12,12,14,14],"right_children":[2,4,-1,6,8,10,-1,12,14,16,18,20,22,-1,24,-1,-1,-1,-1,-1,-1,-1,-1,-1,-1],"split_conditions":[1.6823369E0,1.4300877E0,1.2810713E-1,-7.7561414E-1,-2.103737E0,1.8515848E0,-1.3190375E-1,4.660051E-2,5.219843E-1,1.2888968E0,-1.0282655E0,1.3882706E0,-1.4170821E0,-1.4536165E-1,-1.0282655E0,-1.3068593E-1,-7.3170178E-3,1.9280607E-2,1.6611595E-4,3.1494685E-2,4.1938634E-4,1.28332E-1,-7.9617046E-2,2.226269E-2,-1.6271716E-3],"split_indices":[3,13,0,13,8,14,0,0,8,12,5,7,7,0,5,0,0,0,0,0,0,0,0,0,0],"split_type":[0,0,0,0,0,0,0,0,0,0,0,0,0,0,0,0,0,0,0,0,0,0,0,0,0],"sum_hessian":[2.4829637E4,1.9602627E4,5.22701E3,1.4338225E4,5.2644023E3,1.1007519E4,3.330706E3,8.7660925E2,4.387793E3,7.5534736E3,3.454045E3,8.5136487E2,2.5244356E1,3.51059E2,4.0367341E3,1.380015E3,6.1734585E3,7.0818427E2,2.7458606E3,7.609199E2,9.044496E1,3.2307725E0,2.2013584E1,7.785453E2,3.2581887E3],"tree_param":{"num_deleted":"0","num_feature":"15","num_nodes":"25","size_leaf_vector":"1"}},{"base_weights":[9.335163E-4,-3.1315348E-1,1.2472335E-1,-4.1972458E-1,-2.8389378E-2,-1.7510413E-1,-1.279618E-1,2.3351733E-1,-8.0961026E-2,1.7462528E-1,-2.3756154E-1,2.4863227E-1,-7.102202E-1,-1.3916329E-1,2.6869925E-2,1.9386394E-2,-1.7423885E-2,-1.3630149E-1,-1.0129427E-2,6.149782E-2,2.2176584E-2,8.670454E-2,-1.0033759E-1,1.7634136E-4,3.8151693E-2],"categories":[],"categories_nodes":[],"categories_segments":[],"categories_sizes":[],"default_left":[0,0,0,0,0,0,0,0,0,0,0,0,0,0,0,0,0,0,0,0,0,0,0,0,0],"id":9,"left_children":[1,3,-1,5,7,9,-1,11,13,15,17,19,21,-1,23,-1,-1,-1,-1,-1,-1,-1,-1,-1,-1],"loss_changes":[9.436255E3,5.842965E2,0E0,2.9468352E3,7.222853E1,2.383212E2,0E0,1.2686153E1,6.174336E2,1.1131737E1,1.4194033E3,8.366348E0,7.3819523E0,0E0,3.5947643E1,0E0,0E0,0E0,0E0,0E0,0E0,0E0,0E0,0E0,0E0],"parents":[2147483647,0,0,1,1,3,3,4,4,5,5,7,7,8,8,9,9,10,10,11,11,12,12,14,14],"right_children":[2,4,-1,6,8,10,-1,12,14,16,18,20,22,-1,24,-1,-1,-1,-1,-1,-1,-1,-1,-1,-1],"split_conditions":[1.6823369E0,1.4300877E0,1.2472335E-1,-7.7561414E-1,-2.103737E0,-2.103737E0,-1.279618E-1,2.13012E0,5.219843E-1,1.5592514E0,5.219843E-1,-9.2859954E-1,-7.2095853E-1,-1.3916329E-1,1.7638645E0,1.9386394E-2,-1.7423885E-2,-1.3630149E-1,-1.0129427E-2,6.149782E-2,2.2176584E-2,8.670454E-2,-1.0033759E-1,1.7634136E-4,3.8151693E-2],"split_indices":[3,13,0,13,8,8,0,0,8,7,8,1,1,0,5,0,0,0,0,0,0,0,0,0,0],"split_type":[0,0,0,0,0,0,0,0,0,0,0,0,0,0,0,0,0,0,0,0,0,0,0,0,0],"sum_hessian":[2.4104111E4,1.9252844E4,4.8512676E3,1.4009432E4,5.2434126E3,1.0907652E4,3.1017798E3,8.7597095E2,4.367442E3,1.652531E3,9.255121E3,8.6288745E2,1.3083477E1,3.310967E2,4.0363452E3,1.5665836E3,8.594735E1,9.9859143E2,8.256529E3,5.746155E1,8.054259E2,1.7437816E0,1.1339696E1,3.7704302E3,2.6591495E2],"tree_param":{"num_deleted":"0","num_feature":"15","num_nodes":"25","size_leaf_vector":"1"}},{"base_weights":[9.614681E-4,-2.8765917E-1,1.2181989E-1,9.25299E-2,-3.614098E-1,-4.718779E-1,1.1275515E-1,7.98499E-2,-4.2823583E-1,4.8873177E-1,-6.560061E-1,2.843504E-2,2.56208E-1,2.8585914E-1,1.9935943E-2,-1.281168E0,-2.8420424E-1,-2.0680634E-5,1.6549465E-1,-8.329906E-2,6.3607864E-2,1.626042E-2,-1.2597872E-1,3.3590052E-2,1.6679538E-2,1.3675432E-1,2.661249E-2,-1.5729168E-1,1.34631395E-2,-1.2506488E-1,-1.3940398E-1,-4.014726E-2,-4.0526316E-3],"categories":[],"categories_nodes":[],"categories_segments":[],"categories_sizes":[],"default_left":[0,0,0,0,0,0,0,0,0,0,0,0,0,0,0,0,0,0,0,0,0,0,0,0,0,0,0,0,0,0,0,0,0],"id":10,"left_children":[1,3,-1,5,7,9,11,13,15,17,19,21,23,25,27,29,31,-1,-1,-1,-1,-1,-1,-1,-1,-1,-1,-1,-1,-1,-1,-1,-1],"loss_changes":[8.229803E3,5.309713E2,0E0,3.5180534E1,4.6768823E2,1.9184107E1,3.593669E1,2.5750626E1,1.6917112E3,1.0108526E1,2.1092968E1,3.23871E2,7.781555E0,9.670483E0,2.9574756E2,5.1103516E0,3.3674878E2,0E0,0E0,0E0,0E0,0E0,0E0,0E0,0E0,0E0,0E0,0E0,0E0,0E0,0E0,0E0,0E0],"parents":[2147483647,0,0,1,1,3,3,4,4,5,5,6,6,7,7,8,8,9,9,10,10,11,11,12,12,13,13,14,14,15,15,16,16],"right_children":[2,4,-1,6,8,10,12,14,16,18,20,22,24,26,28,30,32,-1,-1,-1,-1,-1,-1,-1,-1,-1,-1,-1,-1,-1,-1,-1,-1],"split_conditions":[1.6823369E0,-1.0282655E0,1.2181989E-1,-1.2967512E-2,-2.103737E0,-8.55018E-1,1.2888968E0,-4.3661246E-1,5.219843E-1,5.396989E-1,8.8943547E-1,-8.6117613E-1,1.3441093E-1,-3.3069181E0,2.50211E0,1.2888968E0,1.2888968E0,-2.0680634E-5,1.6549465E-1,-8.329906E-2,6.3607864E-2,1.626042E-2,-1.2597872E-1,3.3590052E-2,1.6679538E-2,1.3675432E-1,2.661249E-2,-1.5729168E-1,1.34631395E-2,-1.2506488E-1,-1.3940398E-1,-4.014726E-2,-4.0526316E-3],"split_indices":[3,5,0,0,8,1,12,9,8,7,1,12,7,0,9,12,12,0,0,0,0,0,0,0,0,0,0,0,0,0,0,0,0],"split_type":[0,0,0,0,0,0,0,0,0,0,0,0,0,0,0,0,0,0,0,0,0,0,0,0,0,0,0,0,0,0,0,0,0],"sum_hessian":[2.342339E4,1.8934559E4,4.4888325E3,3.0762178E3,1.5858341E4,1.0564853E2,2.9705693E3,2.0857437E3,1.3772598E4,1.6727207E1,8.892132E1,1.871638E3,1.0989314E3,4.6907977E2,1.6166637E3,1.9885897E3,1.1784008E4,1.2490397E1,4.2368097E0,7.8521126E1,1.0400196E1,1.6958843E3,1.7575365E2,5.7959106E2,5.193403E2,7.1808524E0,4.6189893E2,1.077368E2,1.508927E3,1.5748491E3,4.137406E2,7.955047E3,3.8289607E3],"tree_param":{"num_deleted":"0","num_feature":"15","num_nodes":"33","size_leaf_vector":"1"}},{"base_weights":[1.2909793E-3,-2.628361E-1,1.1931254E-1,-3.6451674E-1,1.6794957E-3,-1.4153446E-1,-1.2315633E-1,2.59364E-1,-3.4978487E-2,-2.4185808E-1,7.220326E-2,2.8056303E-1,-6.709574E-1,-1.589283E-2,-6.036707E-1,-4.564502E-3,-1.24377094E-1,1.08642345E-2,-1.1385358E-2,5.936743E-2,2.4054093E-2,1.4190273E-2,-1.3300432E-1,-1.97753E-2,3.7743484E-3,1.8743359E-1,-7.480993E-2],"categories":[],"categories_nodes":[],"categories_segments":[],"categories_sizes":[],"default_left":[0,0,0,0,0,0,0,0,0,0,0,0,0,0,0,0,0,0,0,0,0,0,0,0,0,0,0],"id":11,"left_children":[1,3,-1,5,7,9,-1,11,13,15,17,19,21,23,25,-1,-1,-1,-1,-1,-1,-1,-1,-1,-1,-1,-1],"loss_changes":[7.190288E3,5.0289087E2,0E0,2.6109883E3,4.9060085E1,2.3040318E2,0E0,1.2944866E1,4.9341297E1,1.4374489E3,2.3286345E1,7.791046E0,8.067148E0,4.292873E1,5.4232185E1,0E0,0E0,0E0,0E0,0E0,0E0,0E0,0E0,0E0,0E0,0E0,0E0],"parents":[2147483647,0,0,1,1,3,3,4,4,5,5,7,7,8,8,9,9,10,10,11,11,12,12,13,13,14,14],"right_children":[2,4,-1,6,8,10,-1,12,14,16,18,20,22,24,26,-1,-1,-1,-1,-1,-1,-1,-1,-1,-1,-1,-1],"split_conditions":[1.6823369E0,1.4300877E0,1.1931254E-1,-7.7561414E-1,-1.1017995E0,1.8515848E0,-1.2315633E-1,4.120744E-2,4.660051E-2,-5.9754467E-1,-4.3661246E-1,-1.3524089E0,-1.7060897E-1,5.219843E-1,-9.329674E-1,-4.564502E-3,-1.24377094E-1,1.08642345E-2,-1.1385358E-2,5.936743E-2,2.4054093E-2,1.4190273E-2,-1.3300432E-1,-1.97753E-2,3.7743484E-3,1.8743359E-1,-7.480993E-2],"split_indices":[3,13,0,13,4,14,0,2,0,14,9,7,1,8,1,0,0,0,0,0,0,0,0,0,0,0,0],"split_type":[0,0,0,0,0,0,0,0,0,0,0,0,0,0,0,0,0,0,0,0,0,0,0,0,0,0,0],"sum_hessian":[2.2839127E4,1.8696502E4,4.1426255E3,1.3504826E4,5.191675E3,1.074313E4,2.7616958E3,6.458246E2,4.5458506E3,7.31126E3,3.4318704E3,6.321191E2,1.370554E1,4.3992373E3,1.4661313E2,6.114794E3,1.1964661E3,2.8701665E3,5.6170386E2,7.007289E1,5.6204614E2,6.4882207E0,7.217319E0,1.00135156E3,3.3978857E3,7.4149485E0,1.3919818E2],"tree_param":{"num_deleted":"0","num_feature":"15","num_nodes":"27","size_leaf_vector":"1"}},{"base_weights":[1.2366873E-3,-2.4148612E-1,1.1713532E-1,-3.3699298E-1,1.502576E-3,-1.2901813E-1,-1.20473675E-1,2.1292156E-1,-4.1374605E-2,-2.2123794E-1,6.49802E-2,2.3075184E-1,-3.9189753E-1,-1.2962E-1,4.906648E-2,-1.21520475E-1,-4.1084774E-3,-7.8122565E-3,1.0460227E-2,2.6335819E-2,-3.2017522E-3,1.1679943E-1,-6.657892E-2,1.6929395E-3,2.9275266E-2],"categories":[],"categories_nodes":[],"categories_segments":[],"categories_sizes":[],"default_left":[0,0,0,0,0,0,0,0,0,0,0,0,0,0,0,0,0,0,0,0,0,0,0,0,0],"id":12,"left_children":[1,3,-1,5,7,9,-1,11,13,15,17,19,21,-1,23,-1,-1,-1,-1,-1,-1,-1,-1,-1,-1],"loss_changes":[6.307732E3,4.2686548E2,0E0,2.3827427E3,4.7063732E1,1.9058852E2,0E0,9.530735E0,4.8992398E2,1.2928652E3,1.947305E1,7.2993393E0,1.1645983E1,0E0,3.1533436E1,0E0,0E0,0E0,0E0,0E0,0E0,0E0,0E0,0E0,0E0],"parents":[2147483647,0,0,1,1,3,3,4,4,5,5,7,7,8,8,9,9,10,10,11,11,12,12,14,14],"right_children":[2,4,-1,6,8,10,-1,12,14,16,18,20,22,-1,24,-1,-1,-1,-1,-1,-1,-1,-1,-1,-1],"split_conditions":[1.6823369E0,1.4300877E0,1.1713532E-1,-7.7561414E-1,-2.103737E0,1.8515848E0,-1.20473675E-1,4.660051E-2,5.219843E-1,1.2888968E0,5.219843E-1,1.3296105E0,-1.4170821E0,-1.2962E-1,1.2978845E0,-1.21520475E-1,-4.1084774E-3,-7.8122565E-3,1.0460227E-2,2.6335819E-2,-3.2017522E-3,1.1679943E-1,-6.657892E-2,1.6929395E-3,2.9275266E-2],"split_indices":[3,13,0,13,8,14,0,0,8,12,8,4,7,0,5,0,0,0,0,0,0,0,0,0,0],"split_type":[0,0,0,0,0,0,0,0,0,0,0,0,0,0,0,0,0,0,0,0,0,0,0,0,0],"sum_hessian":[2.2207236E4,1.8392736E4,3.8144988E3,1.3202931E4,5.1898066E3,1.0651259E4,2.5516716E3,8.7439087E2,4.315416E3,7.219316E3,3.431943E3,8.499524E2,2.4438425E1,2.8922534E2,4.0261907E3,1.1068269E3,6.112489E3,7.439719E2,2.6879712E3,7.5612476E2,9.382768E1,3.1625197E0,2.1275906E1,3.5580305E3,4.6816E2],"tree_param":{"num_deleted":"0","num_feature":"15","num_nodes":"25","size_leaf_vector":"1"}},{"base_weights":[1.1183032E-3,-2.2207622E-1,1.152357E-1,1.0032481E-1,-2.868667E-1,-4.144654E-1,1.1867563E-1,-1.3660371E-1,-4.456843E-1,4.6162584E-1,-5.851964E-1,4.5910392E-2,2.3926803E-1,-2.2936429E-1,3.4023527E-2,-1.18840575E-1,-9.489205E-2,1.1459789E-3,1.5261477E-1,-1.144819E-1,-2.1517254E-2,1.4727217E-2,-1.1765277E-1,8.422728E-3,2.818638E-2,-4.1821743E-3,-1.1728778E-1,2.2879729E-2,-6.866164E-4,2.0116808E-2,-1.4844315E-2],"categories":[],"categories_nodes":[],"categories_segments":[],"categories_sizes":[],"default_left":[0,0,0,0,0,0,0,0,0,0,0,0,0,0,0,0,0,0,0,0,0,0,0,0,0,0,0,0,0,0,0],"id":13,"left_children":[1,3,-1,5,7,9,11,13,15,17,19,21,23,25,27,-1,29,-1,-1,-1,-1,-1,-1,-1,-1,-1,-1,-1,-1,-1,-1],"loss_changes":[5.54831E3,3.77828E2,0E0,2.864687E1,3.5934277E2,1.5888912E1,2.5645245E1,1.2251213E2,1.9073745E3,8.411561E0,1.7941153E1,2.2627461E2,7.241165E0,8.87212E2,2.1718096E1,0E0,7.8885124E1,0E0,0E0,0E0,0E0,0E0,0E0,0E0,0E0,0E0,0E0,0E0,0E0,0E0,0E0],"parents":[2147483647,0,0,1,1,3,3,4,4,5,5,6,6,7,7,8,8,9,9,10,10,11,11,12,12,13,13,14,14,16,16],"right_children":[2,4,-1,6,8,10,12,14,16,18,20,22,24,26,28,-1,30,-1,-1,-1,-1,-1,-1,-1,-1,-1,-1,-1,-1,-1,-1],"split_conditions":[1.6823369E0,-1.0282655E0,1.152357E-1,-1.2967512E-2,-8.6117613E-1,-8.55018E-1,1.2888968E0,1.8515848E0,1.2888968E0,5.396989E-1,-6.087383E-1,-8.6117613E-1,5.019745E-1,-5.9754467E-1,-2.103737E0,-1.18840575E-1,-2.103737E0,1.1459789E-3,1.5261477E-1,-1.144819E-1,-2.1517254E-2,1.4727217E-2,-1.1765277E-1,8.422728E-3,2.818638E-2,-4.1821743E-3,-1.1728778E-1,2.2879729E-2,-6.866164E-4,2.0116808E-2,-1.4844315E-2],"split_indices":[3,5,0,0,12,1,12,14,12,7,1,12,8,14,8,0,8,0,0,0,0,0,0,0,0,0,0,0,0,0,0],"split_type":[0,0,0,0,0,0,0,0,0,0,0,0,0,0,0,0,0,0,0,0,0,0,0,0,0,0,0,0,0,0,0],"sum_hessian":[2.1590943E4,1.808546E4,3.5054822E3,3.0262285E3,1.5059233E4,1.0342038E2,2.922808E3,7.7389756E3,7.320258E3,1.658941E1,8.683096E1,1.8237446E3,1.0990634E3,5.0132207E3,2.7257546E3,2.3475264E3,4.9727314E3,1.2369395E1,4.2200165E0,3.372758E1,5.3103382E1,1.6849148E3,1.3882979E2,2.3751826E2,8.6154517E2,4.1828403E3,8.3038043E2,4.7214514E2,2.2536096E3,7.612675E2,4.211464E3],"tree_param":{"num_deleted":"0","num_feature":"15","num_nodes":"31","size_leaf_vector":"1"}},{"base_weights":[1.0716754E-3,-2.0388591E-1,1.1357136E-1,9.0414755E-2,-2.638453E-1,-3.7619308E-1,1.0697868E-1,-1.2459099E-1,-4.136956E-1,4.259605E-1,-5.333733E-1,1.5963182E-1,-3.4575146E-2,-2.1013148E-1,3.0642277E-2,-1.1672797E-1,-8.555468E-2,1.039829E-3,1.4209914E-1,-6.896106E-2,6.2481917E-2,1.7663255E-2,-3.304742E-2,-1.1776531E-1,1.6152894E-2,-3.7658326E-3,-1.1535454E-1,-2.059761E-3,1.6880497E-2,-3.2752983E-2,-1.2998487E-3],"categories":[],"categories_nodes":[],"categories_segments":[],"categories_sizes":[],"default_left":[0,0,0,0,0,0,0,0,0,0,0,0,0,0,0,0,0,0,0,0,0,0,0,0,0,0,0,0,0,0,0],"id":14,"left_children":[1,3,-1,5,7,9,11,13,15,17,19,21,23,25,27,-1,29,-1,-1,-1,-1,-1,-1,-1,-1,-1,-1,-1,-1,-1,-1],"loss_changes":[4.889723E3,3.1428735E2,0E0,2.3342772E1,3.0868506E2,1.3286928E1,2.1712543E1,1.0185668E2,1.7620444E3,7.2325773E0,1.6183504E1,1.7747452E1,1.7737573E2,8.046235E2,1.9301205E1,0E0,8.717311E1,0E0,0E0,0E0,0E0,0E0,0E0,0E0,0E0,0E0,0E0,0E0,0E0,0E0,0E0],"parents":[2147483647,0,0,1,1,3,3,4,4,5,5,6,6,7,7,8,8,9,9,10,10,11,11,12,12,13,13,14,14,16,16],"right_children":[2,4,-1,6,8,10,12,14,16,18,20,22,24,26,28,-1,30,-1,-1,-1,-1,-1,-1,-1,-1,-1,-1,-1,-1,-1,-1],"split_conditions":[1.6823369E0,-1.0282655E0,1.1357136E-1,-1.2967512E-2,-8.6117613E-1,-8.55018E-1,-5.9754467E-1,1.8515848E0,1.2888968E0,5.396989E-1,9.1497064E-1,4.660051E-2,1.8515848E0,-5.9754467E-1,7.117848E-1,-1.1672797E-1,5.219843E-1,1.039829E-3,1.4209914E-1,-6.896106E-2,6.2481917E-2,1.7663255E-2,-3.304742E-2,-1.1776531E-1,1.6152894E-2,-3.7658326E-3,-1.1535454E-1,-2.059761E-3,1.6880497E-2,-3.2752983E-2,-1.2998487E-3],"split_indices":[3,5,0,0,12,1,14,14,12,7,1,0,14,14,5,0,8,0,0,0,0,0,0,0,0,0,0,0,0,0,0],"split_type":[0,0,0,0,0,0,0,0,0,0,0,0,0,0,0,0,0,0,0,0,0,0,0,0,0,0,0,0,0,0,0],"sum_hessian":[2.1024236E4,1.780824E4,3.2159954E3,3.0140032E3,1.4794237E4,1.0258069E2,2.9114226E3,7.66918E3,7.125057E3,1.6526968E1,8.605373E1,2.1219883E3,7.8943414E2,4.944297E3,2.724883E3,2.160608E3,4.964449E3,1.2370876E1,4.156091E0,7.6181595E1,9.8721285E0,2.051467E3,7.052143E1,1.1486841E2,6.7456573E2,4.1809785E3,7.633187E2,1.9883296E3,7.3655347E2,1.1443903E3,3.820059E3],"tree_param":{"num_deleted":"0","num_feature":"15","num_nodes":"31","size_leaf_vector":"1"}},{"base_weights":[1.0239874E-3,-1.8703449E-1,1.1210783E-1,1.2620327E-1,-2.4147072E-1,2.6940352E-1,8.310683E-2,-1.212561E0,-1.2506568E-1,9.9134964E-1,2.4994093E-1,-1.5422328E0,1.646654E-1,-1.1698277E0,-1.3354564E-1,-2.1067783E-1,3.2172497E-2,1.547502E-1,-4.2537335E-2,5.769614E-2,2.166955E-2,-1.4203876E-1,-1.8446174E-1,1.9873044E-2,-1.2240285E-2,-1.1429691E-1,-1.2581079E-1,-2.14627E-3,-1.1586571E-1,3.517072E-2,6.2688916E-5],"categories":[],"categories_nodes":[],"categories_segments":[],"categories_sizes":[],"default_left":[0,0,0,0,0,0,0,0,0,0,0,0,0,0,0,0,0,0,0,0,0,0,0,0,0,0,0,0,0,0,0],"id":15,"left_children":[1,3,-1,5,7,9,11,13,15,17,19,21,23,25,-1,27,29,-1,-1,-1,-1,-1,-1,-1,-1,-1,-1,-1,-1,-1,-1],"loss_changes":[4.317824E3,2.9931836E2,0E0,1.6019184E1,1.6902092E3,8.194916E0,2.6530435E2,6.8432617E0,1.7977379E2,1.2820531E1,6.25058E0,9.0348816E-1,1.8651669E1,1.3970947E0,0E0,1.5509233E3,4.746224E1,0E0,0E0,0E0,0E0,0E0,0E0,0E0,0E0,0E0,0E0,0E0,0E0,0E0,0E0],"parents":[2147483647,0,0,1,1,3,3,4,4,5,5,6,6,7,7,8,8,9,9,10,10,11,11,12,12,13,13,15,15,16,16],"right_children":[2,4,-1,6,8,10,12,14,16,18,20,22,24,26,-1,28,30,-1,-1,-1,-1,-1,-1,-1,-1,-1,-1,-1,-1,-1,-1],"split_conditions":[1.6823369E0,-2.103737E0,1.1210783E-1,-4.3661246E-1,5.219843E-1,-1.8736515E0,2.50211E0,1.2888968E0,1.2888968E0,4.593775E-1,-9.1146415E-1,1.4300877E0,1.3882706E0,1.4300877E0,-1.3354564E-1,-8.6117613E-1,-1.1983413E0,1.547502E-1,-4.2537335E-2,5.769614E-2,2.166955E-2,-1.4203876E-1,-1.8446174E-1,1.9873044E-2,-1.2240285E-2,-1.1429691E-1,-1.2581079E-1,-2.14627E-3,-1.1586571E-1,3.517072E-2,6.2688916E-5],"split_indices":[3,8,0,9,8,0,9,12,12,7,1,13,7,13,0,12,4,0,0,0,0,0,0,0,0,0,0,0,0,0,0],"split_type":[0,0,0,0,0,0,0,0,0,0,0,0,0,0,0,0,0,0,0,0,0,0,0,0,0,0,0,0,0,0,0],"sum_hessian":[2.0497018E4,1.7551014E4,2.9460034E3,2.5983328E3,1.4952681E4,5.998636E2,1.9984692E3,1.5995208E3,1.335316E4,1.4436038E1,5.8542755E2,9.46346E1,1.9038346E3,1.1946392E3,4.0488156E2,8.645544E3,4.7076157E3,1.030024E1,4.1357985E0,5.2514202E1,5.329133E2,7.151507E1,2.311953E1,1.7021556E3,2.0167896E2,9.266581E2,2.679811E2,7.2078843E3,1.4376594E3,4.2208133E2,4.2855347E3],"tree_param":{"num_deleted":"0","num_feature":"15","num_nodes":"31","size_leaf_vector":"1"}},{"base_weights":[8.9405716E-4,-1.7164679E-1,1.1081667E-1,1.137181E-1,-2.2191776E-1,8.5608244E-2,2.946207E-1,-1.1884598E0,-1.1409355E-1,1.3137116E-1,-1.5130591E-1,1.2936958E0,2.682756E-1,-1.1512628E0,-1.2932214E-1,1.2344798E-1,-1.6483843E-1,1.5824785E-2,-8.026004E-3,1.4540875E-1,1.8163547E-2,3.8988795E-2,1.4383109E-2,-1.1277435E-1,-1.2268372E-1,1.3909504E-2,-3.032282E-2,-2.4396192E-2,2.187199E-3],"categories":[],"categories_nodes":[],"categories_segments":[],"categories_sizes":[],"default_left":[0,0,0,0,0,0,0,0,0,0,0,0,0,0,0,0,0,0,0,0,0,0,0,0,0,0,0,0,0],"id":16,"left_children":[1,3,-1,5,7,9,11,13,15,17,-1,19,21,23,-1,25,27,-1,-1,-1,-1,-1,-1,-1,-1,-1,-1,-1,-1],"loss_changes":[3.8206938E3,2.4823657E2,0E0,1.3156342E1,1.5330083E3,1.6443945E2,8.818041E0,4.263916E0,1.5956508E2,1.2431805E1,0E0,1.2849083E0,5.0974083E0,5.6921387E-1,0E0,1.5600269E1,1.6112811E2,0E0,0E0,0E0,0E0,0E0,0E0,0E0,0E0,0E0,0E0,0E0,0E0],"parents":[2147483647,0,0,1,1,3,3,4,4,5,5,6,6,7,7,8,8,9,9,11,11,12,12,13,13,15,15,16,16],"right_children":[2,4,-1,6,8,10,12,14,16,18,-1,20,22,24,-1,26,28,-1,-1,-1,-1,-1,-1,-1,-1,-1,-1,-1,-1],"split_conditions":[1.6823369E0,-2.103737E0,1.1081667E-1,6.043005E0,5.219843E-1,-1.5835942E-1,-1.8736515E0,1.2888968E0,-1.0282655E0,1.3629401E0,-1.5130591E-1,4.593775E-1,-2.2840096E-1,1.4300877E0,-1.2932214E-1,4.660051E-2,1.4300877E0,1.5824785E-2,-8.026004E-3,1.4540875E-1,1.8163547E-2,3.8988795E-2,1.4383109E-2,-1.1277435E-1,-1.2268372E-1,1.3909504E-2,-3.032282E-2,-2.4396192E-2,2.187199E-3],"split_indices":[3,8,0,10,8,10,0,12,5,7,0,7,4,13,0,0,13,0,0,0,0,0,0,0,0,0,0,0,0],"split_type":[0,0,0,0,0,0,0,0,0,0,0,0,0,0,0,0,0,0,0,0,0,0,0,0,0,0,0,0,0],"sum_hessian":[1.9996428E4,1.7301297E4,2.6951309E3,2.5911707E3,1.4710126E4,2.2439622E3,3.472086E2,1.4753138E3,1.32348125E4,2.182407E3,6.155502E1,7.68455E0,3.3952402E2,1.0975903E3,3.7772348E2,2.3293723E3,1.0905439E4,1.9367023E3,2.4570471E2,6.4471245E0,1.2374252E0,1.7063722E2,1.688868E2,8.492268E2,2.4836356E2,2.2476216E3,8.1750725E1,7.659302E3,3.2461382E3],"tree_param":{"num_deleted":"0","num_feature":"15","num_nodes":"29","size_leaf_vector":"1"}},{"base_weights":[1.0799826E-3,-1.5642643E-1,1.0967431E-1,-2.1152544E-1,6.547601E-2,-1.0116291E-1,-1.131354E-1,-8.262356E-2,1.0542163E-1,1.2329099E-1,-1.4959736E-1,1.2772472E-1,-1.2142513E-1,8.6344786E-2,3.7479967E-1,-3.16593E-2,1.3721061E-2,1.2082069E-2,-1.963982E-2,1.0600342E-2,8.056456E-2,9.1816895E-3,-7.6098E-2,1.090618E-1,2.4358032E-2],"categories":[],"categories_nodes":[],"categories_segments":[],"categories_sizes":[],"default_left":[0,0,0,0,0,0,0,0,0,0,0,0,0,0,0,0,0,0,0,0,0,0,0,0,0],"id":17,"left_children":[1,3,-1,5,7,9,-1,11,13,15,17,19,-1,21,23,-1,-1,-1,-1,-1,-1,-1,-1,-1,-1],"loss_changes":[3.3828762E3,2.095621E2,0E0,1.3936655E3,2.0181236E1,1.333016E2,0E0,1.7270818E2,1.3770477E1,1.3370613E1,1.2765132E2,8.929196E0,0E0,1.1706125E1,1.6391348E1,0E0,0E0,0E0,0E0,0E0,0E0,0E0,0E0,0E0,0E0],"parents":[2147483647,0,0,1,1,3,3,4,4,5,5,7,7,8,8,9,9,10,10,11,11,13,13,14,14],"right_children":[2,4,-1,6,8,10,-1,12,14,16,18,20,-1,22,24,-1,-1,-1,-1,-1,-1,-1,-1,-1,-1],"split_conditions":[1.6823369E0,1.8515848E0,1.0967431E-1,-5.9754467E-1,5.219843E-1,-1.0282655E0,-1.131354E-1,-2.103737E0,1.7243675E0,-1.2967512E-2,-2.103737E0,2.4773183E0,-1.2142513E-1,1.6732972E0,1.9410802E0,-3.16593E-2,1.3721061E-2,1.2082069E-2,-1.963982E-2,1.0600342E-2,8.056456E-2,9.1816895E-3,-7.6098E-2,1.090618E-1,2.4358032E-2],"split_indices":[3,14,0,14,8,5,0,8,1,0,8,1,0,1,1,0,0,0,0,0,0,0,0,0,0],"split_type":[0,0,0,0,0,0,0,0,0,0,0,0,0,0,0,0,0,0,0,0,0,0,0,0,0],"sum_hessian":[1.9600477E4,1.7137713E4,2.4627646E3,1.3728848E4,3.408865E3,1.2259092E4,1.4697559E3,7.239035E2,2.6849614E3,2.175569E3,1.0083522E4,6.1118317E2,1.1272032E2,2.5086257E3,1.7633565E2,6.606474E1,2.1095042E3,1.4874376E3,8.596085E3,5.933287E2,1.7854517E1,2.4934148E3,1.5211068E1,2.6184486E1,1.5015115E2],"tree_param":{"num_deleted":"0","num_feature":"15","num_nodes":"25","size_leaf_vector":"1"}},{"base_weights":[1.1979904E-3,-1.4267355E-1,1.0866097E-1,-2.2283843E-1,3.1749716E-3,-4.651522E-2,-1.1221253E-1,-1.9818448E-1,6.0179226E-2,-2.017714E-1,-2.942885E-3,1.766373E-1,-1.2531833E-1,4.2689793E-2,5.75679E-1,1.1204799E-2,-1.1602749E-1,2.109807E-2,-3.3095628E-3,1.669427E-2,9.316286E-2,2.7996207E-2,9.227285E-5,5.4197382E-2,1.6402066E-1],"categories":[],"categories_nodes":[],"categories_segments":[],"categories_sizes":[],"default_left":[0,0,0,0,0,0,0,0,0,0,0,0,0,0,0,0,0,0,0,0,0,0,0,0,0],"id":18,"left_children":[1,3,-1,5,7,9,-1,11,13,15,17,19,-1,21,23,-1,-1,-1,-1,-1,-1,-1,-1,-1,-1],"loss_changes":[3.000962E3,1.9839084E2,0E0,1.7361886E3,6.910494E1,6.1937065E1,0E0,5.254925E2,4.2278366E1,6.0365814E2,4.612944E1,7.0246887E0,0E0,4.498402E1,4.632473E0,0E0,0E0,0E0,0E0,0E0,0E0,0E0,0E0,0E0,0E0],"parents":[2147483647,0,0,1,1,3,3,4,4,5,5,7,7,8,8,9,9,10,10,11,11,13,13,14,14],"right_children":[2,4,-1,6,8,10,-1,12,14,16,18,20,-1,22,24,-1,-1,-1,-1,-1,-1,-1,-1,-1,-1],"split_conditions":[1.6823369E0,1.2888968E0,1.0866097E-1,-8.6117613E-1,5.219843E-1,5.219843E-1,-1.1221253E-1,-2.103737E0,2.2169414E0,-2.103737E0,-1.1017995E0,9.340384E-1,-1.2531833E-1,-1.0467912E0,4.1595677E-1,1.1204799E-2,-1.1602749E-1,2.109807E-2,-3.3095628E-3,1.669427E-2,9.316286E-2,2.7996207E-2,9.227285E-5,5.4197382E-2,1.6402066E-1],"split_indices":[3,12,0,12,8,8,0,8,4,8,4,0,0,4,0,0,0,0,0,0,0,0,0,0,0],"split_type":[0,0,0,0,0,0,0,0,0,0,0,0,0,0,0,0,0,0,0,0,0,0,0,0,0],"sum_hessian":[1.921525E4,1.6967123E4,2.248127E3,1.0948699E4,6.0184224E3,9.154774E3,1.7939252E3,1.3273324E3,4.6910903E3,2.0054302E3,7.149344E3,9.799918E2,3.473406E2,4.5382046E3,1.5288551E2,1.5114546E3,4.9397552E2,8.82476E2,6.266868E3,9.6877325E2,1.1218598E1,6.7843225E2,3.8597725E3,1.496562E2,3.2293048E0],"tree_param":{"num_deleted":"0","num_feature":"15","num_nodes":"25","size_leaf_vector":"1"}},{"base_weights":[1.0140969E-3,-1.3084568E-1,1.0775997E-1,-1.9729356E-1,2.113284E-2,-4.8629098E-2,-1.1133977E-1,2.2335167E-1,-7.949116E-3,-2.2388303E-1,4.8511697E-4,2.4180232E-1,-6.0421765E-1,8.2475E-3,-5.005632E-1,1.1412761E-2,-1.1749456E-1,1.9761432E-2,-3.3226802E-3,2.2665953E-2,1.0069131E-1,1.5770435E-2,-1.23463504E-1,-1.2616707E-3,2.9872427E-2,1.7231898E-1,-6.355633E-2],"categories":[],"categories_nodes":[],"categories_segments":[],"categories_sizes":[],"default_left":[0,0,0,0,0,0,0,0,0,0,0,0,0,0,0,0,0,0,0,0,0,0,0,0,0,0,0],"id":19,"left_children":[1,3,-1,5,7,9,-1,11,13,15,17,19,21,23,25,-1,-1,-1,-1,-1,-1,-1,-1,-1,-1,-1,-1],"loss_changes":[2.6687737E3,1.6914014E2,0E0,1.5870496E3,2.9970676E1,8.631051E1,0E0,9.929989E0,3.5558685E1,7.057592E2,5.2064205E1,7.041931E0,7.0441947E0,2.6157104E1,4.3684666E1,0E0,0E0,0E0,0E0,0E0,0E0,0E0,0E0,0E0,0E0,0E0,0E0],"parents":[2147483647,0,0,1,1,3,3,4,4,5,5,7,7,8,8,9,9,10,10,11,11,12,12,13,13,14,14],"right_children":[2,4,-1,6,8,10,-1,12,14,16,18,20,22,24,26,-1,-1,-1,-1,-1,-1,-1,-1,-1,-1,-1,-1],"split_conditions":[1.6823369E0,1.4300877E0,1.0775997E-1,-7.7561414E-1,-1.1017995E0,5.219843E-1,-1.1133977E-1,4.120744E-2,4.660051E-2,-2.103737E0,-1.0347285E0,4.5759687E-1,-1.7060897E-1,1.7237281E0,-9.329674E-1,1.1412761E-2,-1.1749456E-1,1.9761432E-2,-3.3226802E-3,2.2665953E-2,1.0069131E-1,1.5770435E-2,-1.23463504E-1,-1.2616707E-3,2.9872427E-2,1.7231898E-1,-6.355633E-2],"split_indices":[3,13,0,13,4,8,0,2,0,8,4,0,1,5,1,0,0,0,0,0,0,0,0,0,0,0,0],"split_type":[0,0,0,0,0,0,0,0,0,0,0,0,0,0,0,0,0,0,0,0,0,0,0,0,0,0,0],"sum_hessian":[1.8797705E4,1.6747371E4,2.050333E3,1.1652416E4,5.094955E3,1.00263955E4,1.6260205E3,6.3976E2,4.455195E3,2.1940002E3,7.8323955E3,6.265E2,1.3259995E1,4.314328E3,1.4086716E2,1.6193561E3,5.746442E2,1.143129E3,6.6892666E3,6.156123E2,1.0887726E1,6.3433127E0,6.9166822E0,4.0260999E3,2.8822797E2,7.389022E0,1.3347813E2],"tree_param":{"num_deleted":"0","num_feature":"15","num_nodes":"27","size_leaf_vector":"1"}},{"base_weights":[8.930566E-4,-1.1975701E-1,1.069572E-1,-1.9108163E-1,6.7797326E-3,-3.6047675E-2,-1.10148944E-1,-1.6698931E-1,5.4069813E-2,-9.450546E-2,6.1895564E-2,1.4796327E-1,-1.1977249E-1,2.760392E-2,3.5965994E-1,1.9642205E-3,-1.10306956E-1,4.9524917E-3,4.1873783E-2,1.3965289E-2,8.912035E-2,1.1394772E-3,5.0867695E-2,-1.1666965E-1,3.7703484E-2],"categories":[],"categories_nodes":[],"categories_segments":[],"categories_sizes":[],"default_left":[0,0,0,0,0,0,0,0,0,0,0,0,0,0,0,0,0,0,0,0,0,0,0,0,0],"id":20,"left_children":[1,3,-1,5,7,9,-1,11,13,15,17,19,-1,21,23,-1,-1,-1,-1,-1,-1,-1,-1,-1,-1],"loss_changes":[2.37608E3,1.4944844E2,0E0,1.4946517E3,4.9068497E1,5.1821552E1,0E0,4.1486148E2,3.795128E1,6.525215E2,1.4913863E1,5.9243965E0,0E0,3.368585E1,1.0358963E1,0E0,0E0,0E0,0E0,0E0,0E0,0E0,0E0,0E0,0E0],"parents":[2147483647,0,0,1,1,3,3,4,4,5,5,7,7,8,8,9,9,10,10,11,11,13,13,14,14],"right_children":[2,4,-1,6,8,10,-1,12,14,16,18,20,-1,22,24,-1,-1,-1,-1,-1,-1,-1,-1,-1,-1],"split_conditions":[1.6823369E0,1.2888968E0,1.069572E-1,-8.6117613E-1,5.219843E-1,1.8515848E0,-1.10148944E-1,-2.103737E0,1.6498607E0,-5.9754467E-1,2.4773183E0,1.4319674E0,-1.1977249E-1,2.2169414E0,-4.1356686E-1,1.9642205E-3,-1.10306956E-1,4.9524917E-3,4.1873783E-2,1.3965289E-2,8.912035E-2,1.1394772E-3,5.0867695E-2,-1.1666965E-1,3.7703484E-2],"split_indices":[3,12,0,12,8,14,0,8,5,14,1,0,0,4,2,0,0,0,0,0,0,0,0,0,0],"split_type":[0,0,0,0,0,0,0,0,0,0,0,0,0,0,0,0,0,0,0,0,0,0,0,0,0],"sum_hessian":[1.8426348E4,1.6557906E4,1.868441E3,1.0588824E4,5.9690825E3,9.048917E3,1.5399065E3,1.2763947E3,4.692688E3,5.666739E3,3.3821787E3,9.78316E2,2.9807877E2,4.3196694E3,3.7301834E2,5.091474E3,5.7526434E2,3.269958E3,1.122208E2,9.6867285E2,9.643119E0,4.1798584E3,1.3981137E2,3.4538627E0,3.6956448E2],"tree_param":{"num_deleted":"0","num_feature":"15","num_nodes":"25","size_leaf_vector":"1"}},{"base_weights":[6.699009E-4,-1.098586E-1,1.0624047E-1,7.830489E-2,-1.5093198E-1,-3.2105124E-1,9.231029E-2,-1.9985043E-1,4.497298E-2,4.330126E-1,-4.699014E-1,1.0530844E-1,-2.684133E-1,-1.0612238E-1,-1.091569E-1,9.3576114E-4,1.6282117E-1,-9.654867E-3,1.2647866E-1,-9.9048555E-2,-1.3414792E-2,-8.758434E-4,1.3638007E-2,-5.1164746E-2,5.0369274E-2,-2.9072894E-2,-5.4186536E-3,4.5020333E-3,-2.1254418E-2,5.3775646E-3,2.7696585E-2],"categories":[],"categories_nodes":[],"categories_segments":[],"categories_sizes":[],"default_left":[0,0,0,0,0,0,0,0,0,0,0,0,0,0,0,0,0,0,0,0,0,0,0,0,0,0,0,0,0,0,0],"id":21,"left_children":[1,3,-1,5,7,9,11,13,15,17,19,21,23,25,-1,27,29,-1,-1,-1,-1,-1,-1,-1,-1,-1,-1,-1,-1,-1,-1],"loss_changes":[2.1189395E3,1.2640251E2,0E0,1.6422264E1,1.2865582E2,1.1374454E1,1.3308277E1,8.9768164E2,1.3924223E1,7.578355E0,1.4478987E1,9.693033E0,1.8810865E1,9.318929E1,0E0,1.8400995E1,9.069691E0,0E0,0E0,0E0,0E0,0E0,0E0,0E0,0E0,0E0,0E0,0E0,0E0,0E0,0E0],"parents":[2147483647,0,0,1,1,3,3,4,4,5,5,6,6,7,7,8,8,9,9,10,10,11,11,12,12,13,13,15,15,16,16],"right_children":[2,4,-1,6,8,10,12,14,16,18,20,22,24,26,-1,28,30,-1,-1,-1,-1,-1,-1,-1,-1,-1,-1,-1,-1,-1,-1],"split_conditions":[1.6823369E0,-1.0282655E0,1.0624047E-1,-1.2967512E-2,1.8515848E0,-8.55018E-1,4.660051E-2,-5.9754467E-1,7.117848E-1,-8.906328E-1,-6.087383E-1,5.219843E-1,4.1887972E-1,5.219843E-1,-1.091569E-1,3.137173E-1,-2.3904681E-2,-9.654867E-3,1.2647866E-1,-9.9048555E-2,-1.3414792E-2,-8.758434E-4,1.3638007E-2,-5.1164746E-2,5.0369274E-2,-2.9072894E-2,-5.4186536E-3,4.5020333E-3,-2.1254418E-2,5.3775646E-3,2.7696585E-2],"split_indices":[3,5,0,0,14,1,0,14,5,1,1,8,4,8,0,5,7,0,0,0,0,0,0,0,0,0,0,0,0,0,0],"split_type":[0,0,0,0,0,0,0,0,0,0,0,0,0,0,0,0,0,0,0,0,0,0,0,0,0,0,0,0,0,0,0],"sum_hessian":[1.8054281E4,1.6352819E4,1.7014613E3,2.9298442E3,1.3422975E4,9.852536E1,2.8313188E3,1.0740899E4,2.6820757E3,1.5927715E1,8.259765E1,2.7335283E3,9.779071E1,9.72032E3,1.02057855E3,1.9532122E3,7.288634E2,1.0271889E1,5.655826E0,3.1620377E1,5.0977272E1,5.853546E2,2.1481736E3,7.462056E1,2.3170147E1,2.133209E3,7.587112E3,1.6195558E3,3.3365643E2,3.735101E2,3.553533E2],"tree_param":{"num_deleted":"0","num_feature":"15","num_nodes":"31","size_leaf_vector":"1"}},{"base_weights":[7.8323466E-4,-9.987363E-2,1.05599456E-1,-1.6484424E-1,1.2826307E-2,-2.5476966E-2,-1.0868787E-1,-1.069569E-2,2.8800315E-1,-1.5519433E-1,9.676861E-3,1.4073849E-1,-4.9970623E-2,3.2676247E-1,-2.0119354E-1,1.105345E-2,-1.1359632E-1,-1.5199882E-3,1.9814588E-2,-3.176215E-2,1.5645918E-2,5.3317554E-2,-6.2652193E-3,2.359755E-2,6.2473703E-2,-5.4401934E-2,4.0058304E-2],"categories":[],"categories_nodes":[],"categories_segments":[],"categories_sizes":[],"default_left":[0,0,0,0,0,0,0,0,0,0,0,0,0,0,0,0,0,0,0,0,0,0,0,0,0,0,0],"id":22,"left_children":[1,3,-1,5,7,9,-1,11,13,15,17,19,21,23,25,-1,-1,-1,-1,-1,-1,-1,-1,-1,-1,-1,-1],"loss_changes":[1.889807E3,1.1893625E2,0E0,1.3239637E3,3.845529E1,4.0820747E1,0E0,3.2562916E1,8.936665E0,4.9756564E2,3.302773E1,8.174496E0,3.218235E1,1.1590183E1,7.4315357E0,0E0,0E0,0E0,0E0,0E0,0E0,0E0,0E0,0E0,0E0,0E0,0E0],"parents":[2147483647,0,0,1,1,3,3,4,4,5,5,7,7,8,8,9,9,10,10,11,11,12,12,13,13,14,14],"right_children":[2,4,-1,6,8,10,-1,12,14,16,18,20,22,24,26,-1,-1,-1,-1,-1,-1,-1,-1,-1,-1,-1,-1],"split_conditions":[1.6823369E0,1.2888968E0,1.05599456E-1,-8.6117613E-1,1.6498607E0,5.219843E-1,-1.0868787E-1,-1.0282655E0,1.620883E0,-2.103737E0,1.2978845E0,-1.2967512E-2,-1.4695722E0,2.419852E-1,6.213843E-2,1.105345E-2,-1.1359632E-1,-1.5199882E-3,1.9814588E-2,-3.176215E-2,1.5645918E-2,5.3317554E-2,-6.2652193E-3,2.359755E-2,6.2473703E-2,-5.4401934E-2,4.0058304E-2],"split_indices":[3,12,0,12,5,8,0,5,1,8,5,0,4,1,4,0,0,0,0,0,0,0,0,0,0,0,0],"split_type":[0,0,0,0,0,0,0,0,0,0,0,0,0,0,0,0,0,0,0,0,0,0,0,0,0,0,0],"sum_hessian":[1.779041E4,1.6241989E4,1.5484221E3,1.0302321E4,5.9396675E3,8.950469E3,1.3518528E3,5.472815E3,4.6685272E2,1.9076904E3,7.042778E3,1.126548E3,4.346267E3,4.328869E2,3.396584E1,1.5017064E3,4.0598398E2,6.222382E3,8.203964E2,3.671989E1,1.0898281E3,9.163218E1,4.254635E3,3.3316885E2,9.9718056E1,2.1699717E1,1.2266122E1],"tree_param":{"num_deleted":"0","num_feature":"15","num_nodes":"27","size_leaf_vector":"1"}},{"base_weights":[6.581949E-4,-9.1298446E-2,1.05025075E-1,-1.45272E-1,2.5901223E-2,-2.8204326E-2,-1.0809695E-1,2.1668418E-1,1.2641065E-3,-1.6981538E-1,9.704884E-3,1.0801263E0,2.0131241E-1,1.5277674E-2,-4.260703E-1,1.0539125E-2,-1.1367978E-1,1.7823841E-2,-1.9358244E-3,6.6961455E-3,1.4521876E-1,-6.55464E-5,2.7231013E-2,-2.0751264E-4,2.7008174E-2,1.591857E-1,-5.466457E-2],"categories":[],"categories_nodes":[],"categories_segments":[],"categories_sizes":[],"default_left":[0,0,0,0,0,0,0,0,0,0,0,0,0,0,0,0,0,0,0,0,0,0,0,0,0,0,0],"id":23,"left_children":[1,3,-1,5,7,9,-1,11,13,15,17,19,21,23,25,-1,-1,-1,-1,-1,-1,-1,-1,-1,-1,-1,-1],"loss_changes":[1.6886227E3,1.01760345E2,0E0,1.2064602E3,2.3845005E1,5.2560146E1,0E0,7.48324E0,2.6918152E1,5.503205E2,3.7836086E1,3.6419563E0,8.191814E0,1.9243994E1,3.5596664E1,0E0,0E0,0E0,0E0,0E0,0E0,0E0,0E0,0E0,0E0,0E0,0E0],"parents":[2147483647,0,0,1,1,3,3,4,4,5,5,7,7,8,8,9,9,10,10,11,11,12,12,13,13,14,14],"right_children":[2,4,-1,6,8,10,-1,12,14,16,18,20,22,24,26,-1,-1,-1,-1,-1,-1,-1,-1,-1,-1,-1,-1],"split_conditions":[1.6823369E0,1.4300877E0,1.05025075E-1,-7.7561414E-1,-1.137928E0,5.219843E-1,-1.0809695E-1,-1.6767197E0,4.660051E-2,-2.103737E0,-1.0347285E0,-1.3646693E0,-8.408133E-1,1.7638645E0,-9.329674E-1,1.0539125E-2,-1.1367978E-1,1.7823841E-2,-1.9358244E-3,6.6961455E-3,1.4521876E-1,-6.55464E-5,2.7231013E-2,-2.0751264E-4,2.7008174E-2,1.591857E-1,-5.466457E-2],"split_indices":[3,13,0,13,4,8,0,7,0,8,4,4,7,5,1,0,0,0,0,0,0,0,0,0,0,0,0],"split_type":[0,0,0,0,0,0,0,0,0,0,0,0,0,0,0,0,0,0,0,0,0,0,0,0,0,0,0],"sum_hessian":[1.7493604E4,1.608526E4,1.4083446E3,1.1013164E4,5.0720947E3,9.789414E3,1.2237505E3,5.7919275E2,4.4929023E3,2.0664912E3,7.722923E3,8.919361E0,5.702734E2,4.351178E3,1.4172385E2,1.6093544E3,4.5713693E2,1.1351565E3,6.587766E3,2.7126052E0,6.206756E0,1.4858447E2,4.216889E2,4.0746746E3,2.7650378E2,7.3028345E0,1.3442102E2],"tree_param":{"num_deleted":"0","num_feature":"15","num_nodes":"27","size_leaf_vector":"1"}},{"base_weights":[5.3656095E-4,-8.3444186E-2,1.0450959E-1,-1.4096719E-1,1.4020041E-2,-1.9383837E-2,-1.0726807E-1,-8.638765E-3,2.4374641E-1,7.0776124E-3,-1.6014498E-1,1.2607534E-1,-4.419412E-2,-1.19931184E-1,2.573717E-1,-9.7261445E-4,2.2912767E-2,-1.1784213E-1,1.1528897E-2,-2.8764024E-2,1.4017296E-2,9.2008166E-2,-5.242037E-3,5.2721478E-2,2.0303823E-2],"categories":[],"categories_nodes":[],"categories_segments":[],"categories_sizes":[],"default_left":[0,0,0,0,0,0,0,0,0,0,0,0,0,0,0,0,0,0,0,0,0,0,0,0,0],"id":24,"left_children":[1,3,-1,5,7,9,-1,11,13,15,17,19,21,-1,23,-1,-1,-1,-1,-1,-1,-1,-1,-1,-1],"loss_changes":[1.5104222E3,8.935076E1,0E0,1.1352816E3,3.0795822E1,3.3025383E1,0E0,2.5801863E1,1.0752136E1,2.7853008E1,3.936419E2,6.601101E0,3.3854244E1,0E0,7.6196136E0,0E0,0E0,0E0,0E0,0E0,0E0,0E0,0E0,0E0,0E0],"parents":[2147483647,0,0,1,1,3,3,4,4,5,5,7,7,8,8,9,9,10,10,11,11,12,12,14,14],"right_children":[2,4,-1,6,8,10,-1,12,14,16,18,20,22,-1,24,-1,-1,-1,-1,-1,-1,-1,-1,-1,-1],"split_conditions":[1.6823369E0,1.2888968E0,1.0450959E-1,-8.6117613E-1,1.5537122E0,-4.3661246E-1,-1.0726807E-1,-1.0282655E0,-4.1356686E-1,1.7237281E0,2.50211E0,-1.2967512E-2,-2.9758298E0,-1.19931184E-1,-1.0240391E0,-9.7261445E-4,2.2912767E-2,-1.1784213E-1,1.1528897E-2,-2.8764024E-2,1.4017296E-2,9.2008166E-2,-5.242037E-3,5.2721478E-2,2.0303823E-2],"split_indices":[3,12,0,12,5,9,0,5,2,5,9,0,0,0,4,0,0,0,0,0,0,0,0,0,0],"split_type":[0,0,0,0,0,0,0,0,0,0,0,0,0,0,0,0,0,0,0,0,0,0,0,0,0],"sum_hessian":[1.7216117E4,1.5935825E4,1.2802925E3,1.0021016E4,5.91481E3,8.865181E3,1.1558352E3,5.3846626E3,5.3014777E2,7.463146E3,1.4020344E3,1.1238838E3,4.260779E3,4.1448436E0,5.260029E2,6.93899E3,5.2415564E2,2.9779846E2,1.104236E3,3.6395653E1,1.087488E3,3.510365E1,4.2256753E3,8.6701775E1,4.3930118E2],"tree_param":{"num_deleted":"0","num_feature":"15","num_nodes":"25","size_leaf_vector":"1"}},{"base_weights":[4.334961E-4,-7.618498E-2,1.0404619E-1,8.502618E-2,-1.0684317E-1,1.222054E-1,-2.2138143E-2,-1.1041089E-1,-4.0508177E-2,3.442814E-2,1.774024E-1,-1.06647454E-1,5.6565806E-2,-9.358976E-2,4.741051E-2,1.02506734E-1,1.376568E-3,3.6742564E-2,1.2700903E-2,7.848977E-3,-4.9586974E-2,1.121014E-3,-1.0699588E-1,3.2946658E-3,4.7142956E-2],"categories":[],"categories_nodes":[],"categories_segments":[],"categories_sizes":[],"default_left":[0,0,0,0,0,0,0,0,0,0,0,0,0,0,0,0,0,0,0,0,0,0,0,0,0],"id":25,"left_children":[1,3,-1,5,7,9,11,-1,13,15,17,-1,19,21,23,-1,-1,-1,-1,-1,-1,-1,-1,-1,-1],"loss_changes":[1.35222E3,7.8125046E1,0E0,1.0067043E1,8.784835E2,9.0809E0,5.3607845E1,0E0,5.8120438E1,1.4832316E1,1.0977264E1,0E0,7.3879223E0,7.945698E2,2.8740261E1,0E0,0E0,0E0,0E0,0E0,0E0,0E0,0E0,0E0,0E0],"parents":[2147483647,0,0,1,1,3,3,4,4,5,5,6,6,8,8,9,9,10,10,12,12,13,13,14,14],"right_children":[2,4,-1,6,8,10,12,-1,14,16,18,-1,20,22,24,-1,-1,-1,-1,-1,-1,-1,-1,-1,-1],"split_conditions":[1.6823369E0,-2.103737E0,1.0404619E-1,-5.9754467E-1,5.219843E-1,-5.2944493E-1,1.8515848E0,-1.1041089E-1,1.2888968E0,-1.6640545E0,-2.8484514E-1,-1.06647454E-1,9.340384E-1,-8.6117613E-1,2.2169414E0,1.02506734E-1,1.376568E-3,3.6742564E-2,1.2700903E-2,7.848977E-3,-4.9586974E-2,1.121014E-3,-1.0699588E-1,3.2946658E-3,4.7142956E-2],"split_indices":[3,8,0,14,8,1,14,0,12,7,1,0,0,12,4,0,0,0,0,0,0,0,0,0,0],"split_type":[0,0,0,0,0,0,0,0,0,0,0,0,0,0,0,0,0,0,0,0,0,0,0,0,0],"sum_hessian":[1.696749E4,1.5804132E4,1.1633574E3,2.5250083E3,1.3279124E4,1.8745264E3,6.50482E2,8.2722095E2,1.2451903E4,7.243113E2,1.1502151E3,4.470697E1,6.05775E2,7.7641646E3,4.6877383E3,1.3805621E1,7.105057E2,2.3977623E2,9.104389E2,5.8347705E2,2.2297958E1,7.012461E3,7.5170355E2,4.5341504E3,1.5358818E2],"tree_param":{"num_deleted":"0","num_feature":"15","num_nodes":"25","size_leaf_vector":"1"}},{"base_weights":[2.6098246E-4,-6.970142E-2,1.0362889E-1,6.9785826E-2,-1.0122448E-1,-2.6479852E-1,8.138006E-2,-1.3818857E-1,5.626003E-2,-3.7978905E-1,6.7229134E-1,9.248476E-2,-2.28653E-1,6.1859436E-2,-1.7413977E-1,2.7101098E-2,2.526087E-1,3.7652995E-2,-5.3970892E-2,1.769164E-1,-5.0885216E-3,-9.6967164E-4,1.1969391E-2,4.2947564E-2,-4.9765512E-2,-5.1171448E-2,7.2642425E-3,-1.08955674E-1,-1.053773E-2,-2.7081575E-3,1.3756662E-2,1.2184671E-2,4.331651E-2],"categories":[],"categories_nodes":[],"categories_segments":[],"categories_sizes":[],"default_left":[0,0,0,0,0,0,0,0,0,0,0,0,0,0,0,0,0,0,0,0,0,0,0,0,0,0,0,0,0,0,0,0,0],"id":26,"left_children":[1,3,-1,5,7,9,11,13,15,17,19,21,23,25,27,29,31,-1,-1,-1,-1,-1,-1,-1,-1,-1,-1,-1,-1,-1,-1,-1,-1],"loss_changes":[1.2119248E3,6.88759E1,0E0,1.1223738E1,7.437877E1,1.0702404E1,9.6327095E0,7.442888E1,1.3901888E1,1.0725088E1,8.781901E0,7.4966164E0,1.7355461E1,9.790786E0,5.5201105E2,1.26706705E1,7.360775E0,0E0,0E0,0E0,0E0,0E0,0E0,0E0,0E0,0E0,0E0,0E0,0E0,0E0,0E0,0E0,0E0],"parents":[2147483647,0,0,1,1,3,3,4,4,5,5,6,6,7,7,8,8,9,9,10,10,11,11,12,12,13,13,14,14,15,15,16,16],"right_children":[2,4,-1,6,8,10,12,14,16,18,20,22,24,26,28,30,32,-1,-1,-1,-1,-1,-1,-1,-1,-1,-1,-1,-1,-1,-1,-1,-1],"split_conditions":[1.6823369E0,-1.0282655E0,1.0362889E-1,-1.2967512E-2,1.0340922E0,1.2426202E0,4.660051E-2,-2.103737E0,2.6427095E0,-8.55018E-1,-3.3069181E0,5.219843E-1,-6.688803E-1,-9.971892E-1,5.219843E-1,1.4300877E0,1.2804363E0,3.7652995E-2,-5.3970892E-2,1.769164E-1,-5.0885216E-3,-9.6967164E-4,1.1969391E-2,4.2947564E-2,-4.9765512E-2,-5.1171448E-2,7.2642425E-3,-1.08955674E-1,-1.053773E-2,-2.7081575E-3,1.3756662E-2,1.2184671E-2,4.331651E-2],"split_indices":[3,5,0,0,5,7,0,8,5,1,0,8,1,5,8,13,12,0,0,0,0,0,0,0,0,0,0,0,0,0,0,0,0],"split_type":[0,0,0,0,0,0,0,0,0,0,0,0,0,0,0,0,0,0,0,0,0,0,0,0,0,0,0,0,0,0,0,0,0],"sum_hessian":[1.6718129E4,1.5661452E4,1.0566766E3,2.8867195E3,1.2774733E4,9.595079E1,2.7907686E3,1.0346395E4,2.4283386E3,8.599325E1,9.95754E0,2.6949434E3,9.5825165E1,1.5760195E3,8.770375E3,2.1153367E3,3.1300195E2,1.4772805E1,7.122044E1,3.3818164E0,6.575723E0,5.6684674E2,2.1280967E3,2.7630083E1,6.819508E1,2.822465E1,1.5477949E3,6.117298E2,8.158645E3,1.419725E3,6.9561176E2,1.8250421E2,1.3049776E2],"tree_param":{"num_deleted":"0","num_feature":"15","num_nodes":"33","size_leaf_vector":"1"}},{"base_weights":[3.7065902E-4,-6.320845E-2,1.0325246E-1,-1.182054E-2,-1.4557183E-1,-1.2896721E-1,1.7968107E-2,-1.0637822E-1,2.9989947E-2,8.098589E-2,-1.1001571E-1,2.0200671E-1,-2.828626E-3,3.6058687E-2,-6.662336E-1,4.854647E-3,2.351988E-2,1.6031128E-1,1.9269614E-2,-3.2174394E-3,1.6255638E-2,1.9480715E-2,1.5334258E-3,-1.0500473E-1,1.2461402E-1],"categories":[],"categories_nodes":[],"categories_segments":[],"categories_sizes":[],"default_left":[0,0,0,0,0,0,0,0,0,0,0,0,0,0,0,0,0,0,0,0,0,0,0,0,0],"id":27,"left_children":[1,3,-1,5,7,9,11,-1,13,15,-1,17,19,21,23,-1,-1,-1,-1,-1,-1,-1,-1,-1,-1],"loss_changes":[1.0862173E3,6.599051E1,0E0,3.3511486E1,9.656967E2,3.9706244E2,2.9305492E1,0E0,2.1276075E1,8.001355E0,0E0,9.832123E0,3.3397385E1,1.6405144E1,3.32489E1,0E0,0E0,0E0,0E0,0E0,0E0,0E0,0E0,0E0,0E0],"parents":[2147483647,0,0,1,1,3,3,4,4,5,5,6,6,8,8,9,9,11,11,12,12,13,13,14,14],"right_children":[2,4,-1,6,8,10,12,-1,14,16,-1,18,20,22,24,-1,-1,-1,-1,-1,-1,-1,-1,-1,-1],"split_conditions":[1.6823369E0,-7.7561414E-1,1.0325246E-1,5.219843E-1,1.4300877E0,-2.103737E0,-1.1609548E0,-1.0637822E-1,3.7515476E0,9.239215E-1,-1.1001571E-1,-4.7186112E0,1.13421E0,-1.137928E0,7.313578E-1,4.854647E-3,2.351988E-2,1.6031128E-1,1.9269614E-2,-3.2174394E-3,1.6255638E-2,1.9480715E-2,1.5334258E-3,-1.0500473E-1,1.2461402E-1],"split_indices":[3,13,0,8,13,8,4,0,0,5,0,0,4,4,4,0,0,0,0,0,0,0,0,0,0],"split_type":[0,0,0,0,0,0,0,0,0,0,0,0,0,0,0,0,0,0,0,0,0,0,0,0,0],"sum_hessian":[1.6550283E4,1.5590849E4,9.5943384E2,9.601471E3,5.9893784E3,1.9458605E3,7.65561E3,9.605452E2,5.028833E3,1.6007294E3,3.451311E2,7.7638196E2,6.879228E3,4.9863174E3,4.2515804E1,1.3236154E3,2.7711407E2,3.9951065E0,7.7238684E2,5.843218E3,1.0360099E3,5.7481946E2,4.411498E3,3.5784725E1,6.7310786E0],"tree_param":{"num_deleted":"0","num_feature":"15","num_nodes":"25","size_leaf_vector":"1"}},{"base_weights":[2.4100888E-4,-5.7729658E-2,1.02912284E-1,-1.083638E-2,-1.3373917E-1,-1.188627E-1,1.6195273E-2,-1.0571849E-1,2.6989205E-2,7.296459E-2,-1.0894469E-1,4.7397465E-3,3.16699E-1,3.245223E-2,-6.117105E-1,4.3714894E-3,2.1227218E-2,1.5222795E-2,-2.197065E-3,2.6497144E-2,1.1062697E-1,-2.6972009E-2,4.1863527E-3,-9.727003E-2,1.12501875E-1],"categories":[],"categories_nodes":[],"categories_segments":[],"categories_sizes":[],"default_left":[0,0,0,0,0,0,0,0,0,0,0,0,0,0,0,0,0,0,0,0,0,0,0,0,0],"id":28,"left_children":[1,3,-1,5,7,9,11,-1,13,15,-1,17,19,21,23,-1,-1,-1,-1,-1,-1,-1,-1,-1,-1],"loss_changes":[9.7495044E2,5.5153225E1,0E0,2.795062E1,8.76323E2,3.5676254E2,2.6354744E1,0E0,1.7569666E1,6.51245E0,0E0,2.9061497E1,1.1189074E1,1.4196332E1,2.786871E1,0E0,0E0,0E0,0E0,0E0,0E0,0E0,0E0,0E0,0E0],"parents":[2147483647,0,0,1,1,3,3,4,4,5,5,6,6,8,8,9,9,11,11,12,12,13,13,14,14],"right_children":[2,4,-1,6,8,10,12,-1,14,16,-1,18,20,22,24,-1,-1,-1,-1,-1,-1,-1,-1,-1,-1],"split_conditions":[1.6823369E0,-7.7561414E-1,1.02912284E-1,5.219843E-1,1.4300877E0,-2.103737E0,2.1331573E0,-1.0571849E-1,3.7515476E0,9.239215E-1,-1.0894469E-1,-1.0347285E0,1.620883E0,-1.2967512E-2,7.313578E-1,4.3714894E-3,2.1227218E-2,1.5222795E-2,-2.197065E-3,2.6497144E-2,1.1062697E-1,-2.6972009E-2,4.1863527E-3,-9.727003E-2,1.12501875E-1],"split_indices":[3,13,0,8,13,8,4,0,0,5,0,4,1,0,4,0,0,0,0,0,0,0,0,0,0],"split_type":[0,0,0,0,0,0,0,0,0,0,0,0,0,0,0,0,0,0,0,0,0,0,0,0,0],"sum_hessian":[1.63439E4,1.5473041E4,8.708594E2,9.570045E3,5.9029966E3,1.9147501E3,7.6552944E3,8.7429E2,5.028707E3,1.5995402E3,3.1521E2,7.375161E3,2.801333E2,4.9870005E3,4.1706387E1,1.3230582E3,2.764819E2,1.130135E3,6.245026E3,2.641627E2,1.5970638E1,1.4979553E2,4.837205E3,3.489349E1,6.8128996E0],"tree_param":{"num_deleted":"0","num_feature":"15","num_nodes":"25","size_leaf_vector":"1"}},{"base_weights":[1.2410757E-4,-5.2704122E-2,1.0260425E-1,-9.692832E-2,1.9473847E-2,-5.930674E-3,-1.0518892E-1,2.463026E-3,2.1584854E-1,-1.2858313E-3,-5.44473E-1,6.2167343E-2,-6.1439067E-2,2.5076208E-1,-2.2680719E-1,-2.1064223E-3,1.1753383E-2,-1.032804E-1,-1.136859E-2,1.3083161E-1,5.881013E-3,1.1349703E-1,-7.087582E-3,1.7101265E-2,5.1209014E-2,-5.4648526E-2,3.3593573E-2],"categories":[],"categories_nodes":[],"categories_segments":[],"categories_sizes":[],"default_left":[0,0,0,0,0,0,0,0,0,0,0,0,0,0,0,0,0,0,0,0,0,0,0,0,0,0,0],"id":29,"left_children":[1,3,-1,5,7,9,-1,11,13,15,17,19,21,23,25,-1,-1,-1,-1,-1,-1,-1,-1,-1,-1,-1,-1],"loss_changes":[8.7566016E2,4.9049152E1,0E0,8.279687E2,1.9503386E1,2.1762037E1,0E0,2.050761E1,7.250046E0,2.0275696E1,1.5532331E1,1.1548629E1,2.9393711E1,8.913237E0,6.3993044E0,0E0,0E0,0E0,0E0,0E0,0E0,0E0,0E0,0E0,0E0,0E0,0E0],"parents":[2147483647,0,0,1,1,3,3,4,4,5,5,7,7,8,8,9,9,10,10,11,11,12,12,13,13,14,14],"right_children":[2,4,-1,6,8,10,-1,12,14,16,18,20,22,24,26,-1,-1,-1,-1,-1,-1,-1,-1,-1,-1,-1,-1],"split_conditions":[1.6823369E0,1.2888968E0,1.0260425E-1,-8.6117613E-1,1.6498607E0,3.7515476E0,-1.0518892E-1,9.1096945E-2,1.620883E0,1.0867629E0,-3.7853166E-1,-9.991572E-1,-2.9758298E0,2.419852E-1,6.213843E-2,-2.1064223E-3,1.1753383E-2,-1.032804E-1,-1.136859E-2,1.3083161E-1,5.881013E-3,1.1349703E-1,-7.087582E-3,1.7101265E-2,5.1209014E-2,-5.4648526E-2,3.3593573E-2],"split_indices":[3,12,0,12,5,0,0,7,1,4,7,1,0,1,4,0,0,0,0,0,0,0,0,0,0,0,0],"split_type":[0,0,0,0,0,0,0,0,0,0,0,0,0,0,0,0,0,0,0,0,0,0,0,0,0,0,0],"sum_hessian":[1.61548545E4,1.5364623E4,7.9023114E2,9.526992E3,5.837631E3,8.699069E3,8.2792285E2,5.3731943E3,4.6443668E2,8.625677E3,7.3392715E1,2.77785E3,2.595344E3,4.3088504E2,3.3551632E1,7.39547E3,1.2302068E3,3.374389E1,3.9648827E1,6.4192443E0,2.771431E3,1.937732E1,2.5759666E3,3.314048E2,9.948027E1,2.1415174E1,1.2136456E1],"tree_param":{"num_deleted":"0","num_feature":"15","num_nodes":"27","size_leaf_vector":"1"}},{"base_weights":[1.0881897E-4,-4.793127E-2,1.0232475E-1,6.703122E-2,-7.44157E-2,-2.3538657E-1,7.743512E-2,-1.0777093E-1,4.9227703E-2,-3.413039E-1,6.3120246E-1,8.062878E-2,-6.9936067E-1,-4.3739855E-2,-1.05508626E-1,5.5331635E-1,4.1366056E-2,4.0438574E-2,-5.1169854E-2,1.23574495E-1,-4.6541836E-2,7.924579E-3,1.4590363E-1,4.438813E-2,-1.0755389E-1,-7.6624E-3,9.213548E-3,-3.3804588E-2,7.449837E-2,-7.5189225E-2,5.3441576E-3],"categories":[],"categories_nodes":[],"categories_segments":[],"categories_sizes":[],"default_left":[0,0,0,0,0,0,0,0,0,0,0,0,0,0,0,0,0,0,0,0,0,0,0,0,0,0,0,0,0,0,0],"id":30,"left_children":[1,3,-1,5,7,9,11,13,15,17,19,21,23,25,-1,27,29,-1,-1,-1,-1,-1,-1,-1,-1,-1,-1,-1,-1,-1,-1],"loss_changes":[7.8678064E2,4.6556606E1,0E0,9.027061E0,5.1256264E1,8.97882E0,6.92531E0,5.9361896E2,1.0442818E1,1.109941E1,7.701462E0,5.142723E0,5.3974304E0,4.0973427E1,0E0,7.166485E0,2.4959034E1,0E0,0E0,0E0,0E0,0E0,0E0,0E0,0E0,0E0,0E0,0E0,0E0,0E0,0E0],"parents":[2147483647,0,0,1,1,3,3,4,4,5,5,6,6,7,7,8,8,9,9,10,10,11,11,12,12,13,13,15,15,16,16],"right_children":[2,4,-1,6,8,10,12,14,16,18,20,22,24,26,-1,28,30,-1,-1,-1,-1,-1,-1,-1,-1,-1,-1,-1,-1,-1,-1],"split_conditions":[1.6823369E0,-1.0282655E0,1.0232475E-1,-1.2967512E-2,1.8515848E0,9.1497064E-1,5.5653775E-1,-5.9754467E-1,-2.3208008E0,-8.55018E-1,-1.8736515E0,1.6927351E1,4.660051E-2,1.0340922E0,-1.05508626E-1,-7.2035027E-1,-1.2967512E-2,4.0438574E-2,-5.1169854E-2,1.23574495E-1,-4.6541836E-2,7.924579E-3,1.4590363E-1,4.438813E-2,-1.0755389E-1,-7.6624E-3,9.213548E-3,-3.3804588E-2,7.449837E-2,-7.5189225E-2,5.3441576E-3],"split_indices":[3,5,0,0,14,1,2,14,0,1,0,0,0,5,0,5,0,0,0,0,0,0,0,0,0,0,0,0,0,0,0],"split_type":[0,0,0,0,0,0,0,0,0,0,0,0,0,0,0,0,0,0,0,0,0,0,0,0,0,0,0,0,0,0,0],"sum_hessian":[1.6005201E4,1.52883125E4,7.1688885E2,2.8622874E3,1.2426025E4,9.447546E1,2.7678118E3,9.786148E3,2.6398762E3,8.4726105E1,9.74935E0,2.7573716E3,1.0440237E1,9.167541E3,6.1860754E2,3.947321E1,2.600403E3,1.5503904E1,6.9222206E1,6.202941E0,3.5464091E0,2.7556643E3,1.7073328E0,2.5402365E0,7.9000006E0,7.381523E3,1.7860182E3,6.850548E0,3.262266E1,3.8072903E1,2.5623303E3],"tree_param":{"num_deleted":"0","num_feature":"15","num_nodes":"31","size_leaf_vector":"1"}},{"base_weights":[1.3252666E-4,-4.3522637E-2,1.0207049E-1,-1.4837715E-1,-1.6928423E-2,6.809116E-2,-1.07723095E-1,1.3330245E-1,-3.7000068E-2,8.821896E-2,-9.1510735E-2,1.3741088E0,1.2544258E-1,-7.246037E-2,8.124356E-2,9.13309E-3,-9.591048E-2,-6.5174103E-3,-1.152125E-1,-2.1907242E-3,1.6559364E-1,-4.272128E-2,1.4403871E-2,6.5940036E-3,-1.0363475E-2,4.4478676E-3,2.2831397E-2],"categories":[],"categories_nodes":[],"categories_segments":[],"categories_sizes":[],"default_left":[0,0,0,0,0,0,0,0,0,0,0,0,0,0,0,0,0,0,0,0,0,0,0,0,0,0,0],"id":31,"left_children":[1,3,-1,5,7,9,-1,11,13,15,17,19,21,23,25,-1,-1,-1,-1,-1,-1,-1,-1,-1,-1,-1,-1],"loss_changes":[7.07284E2,4.2449486E1,0E0,6.193406E2,3.662651E1,8.035087E0,0E0,1.3789457E1,4.493055E1,7.3211174E0,7.755148E0,3.5421562E0,1.4693178E1,3.5571655E1,1.3357756E1,0E0,0E0,0E0,0E0,0E0,0E0,0E0,0E0,0E0,0E0,0E0,0E0],"parents":[2147483647,0,0,1,1,3,3,4,4,5,5,7,7,8,8,9,9,10,10,11,11,12,12,13,13,14,14],"right_children":[2,4,-1,6,8,10,-1,12,14,16,18,20,22,24,26,-1,-1,-1,-1,-1,-1,-1,-1,-1,-1,-1,-1],"split_conditions":[1.6823369E0,5.219843E-1,1.0207049E-1,-2.103737E0,-1.1142424E0,1.3629401E0,-1.07723095E-1,-4.7186112E0,7.641722E-1,1.2221706E1,2.13012E0,-1.5573251E0,-1.2967512E-2,-1.0282655E0,2.0646482E0,9.13309E-3,-9.591048E-2,-6.5174103E-3,-1.152125E-1,-2.1907242E-3,1.6559364E-1,-4.272128E-2,1.4403871E-2,6.5940036E-3,-1.0363475E-2,4.4478676E-3,2.2831397E-2],"split_indices":[3,8,0,8,4,7,0,0,4,0,0,4,0,5,4,0,0,0,0,0,0,0,0,0,0,0,0],"split_type":[0,0,0,0,0,0,0,0,0,0,0,0,0,0,0,0,0,0,0,0,0,0,0,0,0,0,0],"sum_hessian":[1.5873027E4,1.5222826E4,6.502017E2,3.078899E3,1.2143927E4,2.497732E3,5.811669E2,1.4306034E3,1.0713323E4,2.21841E3,2.79322E2,7.9109287E0,1.4226924E3,8.242002E3,2.4713218E3,2.212748E3,5.662002E0,2.7358978E2,5.7321935E0,1.4837127E0,6.427216E0,4.5598057E1,1.3770944E3,1.5149928E3,6.7270093E3,1.9781287E3,4.9319318E2],"tree_param":{"num_deleted":"0","num_feature":"15","num_nodes":"27","size_leaf_vector":"1"}},{"base_weights":[1.3260901E-4,-3.9535243E-2,1.0183861E-1,-7.843696E-2,2.2985557E-2,6.529816E-4,-1.0437975E-1,7.557436E-2,-2.8080147E-2,2.0471666E-2,-1.1186802E-1,3.538419E-1,6.1716944E-2,9.247097E-1,-3.5457212E-2,6.807197E-4,1.9952325E-2,-1.16281025E-1,8.045712E-3,-6.850041E-3,5.1929485E-2,-1.6345311E-2,8.072919E-3,1.9016722E-2,1.258804E-1,-6.0394E-2,-2.281233E-3],"categories":[],"categories_nodes":[],"categories_segments":[],"categories_sizes":[],"default_left":[0,0,0,0,0,0,0,0,0,0,0,0,0,0,0,0,0,0,0,0,0,0,0,0,0,0,0],"id":32,"left_children":[1,3,-1,5,7,9,-1,11,13,15,17,19,21,23,25,-1,-1,-1,-1,-1,-1,-1,-1,-1,-1,-1,-1],"loss_changes":[6.362156E2,3.6874565E1,0E0,7.1354956E2,1.5620182E1,1.926748E1,0E0,1.1027378E1,2.077703E1,1.7972002E1,2.6162048E2,9.518967E0,1.170327E1,5.3343544E0,2.1045435E1,0E0,0E0,0E0,0E0,0E0,0E0,0E0,0E0,0E0,0E0,0E0,0E0],"parents":[2147483647,0,0,1,1,3,3,4,4,5,5,7,7,8,8,9,9,10,10,11,11,12,12,13,13,14,14],"right_children":[2,4,-1,6,8,10,-1,12,14,16,18,20,22,24,26,-1,-1,-1,-1,-1,-1,-1,-1,-1,-1,-1,-1],"split_conditions":[1.6823369E0,1.2888968E0,1.0183861E-1,-8.6117613E-1,1.4091067E-2,-4.3661246E-1,-1.0437975E-1,-9.45735E-1,-2.9758298E0,1.7237281E0,2.50211E0,-9.0400356E-1,-8.7316144E-1,-7.5590134E-1,-1.2967512E-2,6.807197E-4,1.9952325E-2,-1.16281025E-1,8.045712E-3,-6.850041E-3,5.1929485E-2,-1.6345311E-2,8.072919E-3,1.9016722E-2,1.258804E-1,-6.0394E-2,-2.281233E-3],"split_indices":[3,12,0,12,7,9,0,1,0,5,9,5,1,1,0,0,0,0,0,0,0,0,0,0,0,0,0],"split_type":[0,0,0,0,0,0,0,0,0,0,0,0,0,0,0,0,0,0,0,0,0,0,0,0,0,0,0],"sum_hessian":[1.5749059E4,1.5159457E4,5.8960205E2,9.344724E3,5.814733E3,8.638028E3,7.0669604E2,2.864409E3,2.9503237E3,7.3451255E3,1.2929025E3,1.3471404E2,2.729695E3,2.1712265E1,2.9286113E3,6.825286E3,5.1983936E2,1.9922276E2,1.0936797E3,3.8084328E1,9.662971E1,2.119449E2,2.51775E3,7.2786245E0,1.44336405E1,6.270679E1,2.8659045E3],"tree_param":{"num_deleted":"0","num_feature":"15","num_nodes":"27","size_leaf_vector":"1"}},{"base_weights":[1.9922494E-5,-3.607436E-2,1.0162648E-1,-6.907404E-2,3.0452855E-2,-4.2264077E-5,-1.04391456E-1,-3.952024E-2,7.53199E-2,-9.443526E-2,2.282924E-2,-7.777271E-2,1.9114375E-1,3.488748E-1,4.1946527E-2,5.702106E-3,-1.0719847E-1,7.488498E-4,1.771757E-2,-5.908358E-3,-5.8174133E-2,2.6448816E-2,-1.9340238E-2,4.3612078E-2,1.8960771E-3,4.787359E-2,3.2213598E-3],"categories":[],"categories_nodes":[],"categories_segments":[],"categories_sizes":[],"default_left":[0,0,0,0,0,0,0,0,0,0,0,0,0,0,0,0,0,0,0,0,0,0,0,0,0,0,0],"id":33,"left_children":[1,3,-1,5,7,9,-1,11,13,15,17,19,21,23,25,-1,-1,-1,-1,-1,-1,-1,-1,-1,-1,-1,-1],"loss_changes":[5.727397E2,3.310548E1,0E0,6.7829376E2,1.5701229E1,2.0325823E1,0E0,1.7257814E1,2.7803228E1,2.7193527E2,1.7943117E1,1.5760329E1,7.899556E0,9.524284E0,1.1534636E1,0E0,0E0,0E0,0E0,0E0,0E0,0E0,0E0,0E0,0E0,0E0,0E0],"parents":[2147483647,0,0,1,1,3,3,4,4,5,5,7,7,8,8,9,9,10,10,11,11,12,12,13,13,14,14],"right_children":[2,4,-1,6,8,10,-1,12,14,16,18,20,22,24,26,-1,-1,-1,-1,-1,-1,-1,-1,-1,-1,-1,-1],"split_conditions":[1.6823369E0,1.4300877E0,1.0162648E-1,-7.7561414E-1,-4.3552527E-1,5.219843E-1,-1.04391456E-1,1.1141404E0,-1.8725462E-1,-2.103737E0,1.5537122E0,4.660051E-2,-6.381693E-1,6.562593E-1,-9.793339E-1,5.702106E-3,-1.0719847E-1,7.488498E-4,1.771757E-2,-5.908358E-3,-5.8174133E-2,2.6448816E-2,-1.9340238E-2,4.3612078E-2,1.8960771E-3,4.787359E-2,3.2213598E-3],"split_indices":[3,13,0,13,7,8,0,5,7,8,5,0,7,1,1,0,0,0,0,0,0,0,0,0,0,0,0],"split_type":[0,0,0,0,0,0,0,0,0,0,0,0,0,0,0,0,0,0,0,0,0,0,0,0,0,0,0],"sum_hessian":[1.56122295E4,1.5077676E4,5.3455396E2,1.0078413E4,4.999262E3,9.412857E3,6.655564E2,1.9532148E3,3.0460474E3,1.8352924E3,7.5775645E3,1.6759452E3,2.772697E2,3.3017932E2,2.7158682E3,1.589903E3,2.4538945E2,6.893461E3,6.8410364E2,1.6170942E3,5.885094E1,2.3311916E2,4.415056E1,2.6087015E2,6.930918E1,5.814793E1,2.6577202E3],"tree_param":{"num_deleted":"0","num_feature":"15","num_nodes":"27","size_leaf_vector":"1"}},{"base_weights":[-1.0542253E-4,-3.2952692E-2,1.0143172E-1,6.0542263E-2,-5.3751327E-2,-2.4542077E-1,7.198596E-2,5.373258E-2,-7.875281E-2,1.7082015E-1,-9.451049E-1,-4.8789536E-3,1.2068266E-1,-2.866696E-1,6.641799E-2,-1.0043294E-1,8.5667424E-2,-2.155236E-2,8.658443E-2,-1.270346E-1,1.4734288E-2,6.5483013E-3,-1.3230103E-2,1.0580133E-2,5.770705E-2,-6.734895E-2,9.833976E-3,7.6698265E-3,-2.0392163E-2,-6.173992E-3,-1.1191427E-1,1.0052684E-2,-4.4565838E-2],"categories":[],"categories_nodes":[],"categories_segments":[],"categories_sizes":[],"default_left":[0,0,0,0,0,0,0,0,0,0,0,0,0,0,0,0,0,0,0,0,0,0,0,0,0,0,0,0,0,0,0,0,0],"id":34,"left_children":[1,3,-1,5,7,9,11,13,15,17,19,21,23,25,27,29,31,-1,-1,-1,-1,-1,-1,-1,-1,-1,-1,-1,-1,-1,-1,-1,-1],"loss_changes":[5.1585425E2,2.9163559E1,0E0,9.574018E0,3.2970005E1,2.8886019E1,9.851238E0,1.0018124E1,3.5487034E1,1.7019356E1,1.3312981E1,9.168155E0,1.0880901E1,1.2484078E1,6.222127E0,3.4655685E2,9.203344E0,0E0,0E0,0E0,0E0,0E0,0E0,0E0,0E0,0E0,0E0,0E0,0E0,0E0,0E0,0E0,0E0],"parents":[2147483647,0,0,1,1,3,3,4,4,5,5,6,6,7,7,8,8,9,9,10,10,11,11,12,12,13,13,14,14,15,15,16,16],"right_children":[2,4,-1,6,8,10,12,14,16,18,20,22,24,26,28,30,32,-1,-1,-1,-1,-1,-1,-1,-1,-1,-1,-1,-1,-1,-1,-1,-1],"split_conditions":[1.6823369E0,-9.403326E-1,1.0143172E-1,-1.2967512E-2,-1.0282655E0,-1.2991071E0,-5.6256926E-1,-1.2967512E-2,2.50211E0,3.1172442E-1,5.396989E-1,-1.1142424E0,2.4773183E0,4.1868564E-2,4.660051E-2,-4.3661246E-1,9.340384E-1,-2.155236E-2,8.658443E-2,-1.270346E-1,1.4734288E-2,6.5483013E-3,-1.3230103E-2,1.0580133E-2,5.770705E-2,-6.734895E-2,9.833976E-3,7.6698265E-3,-2.0392163E-2,-6.173992E-3,-1.1191427E-1,1.0052684E-2,-4.4565838E-2],"split_indices":[3,4,0,0,5,0,5,0,9,7,7,4,1,4,0,9,0,0,0,0,0,0,0,0,0,0,0,0,0,0,0,0,0],"split_type":[0,0,0,0,0,0,0,0,0,0,0,0,0,0,0,0,0,0,0,0,0,0,0,0,0,0,0,0,0,0,0,0,0],"sum_hessian":[1.5479347E4,1.4994779E4,4.8456735E2,2.728335E3,1.2266444E4,9.762949E1,2.6307056E3,2.314599E3,9.951845E3,6.1687542E1,3.594195E1,1.0206184E3,1.6100872E3,8.238085E1,2.2322183E3,8.792829E3,1.159016E3,4.009166E1,2.1595886E1,2.7570795E1,8.371159E0,6.5784503E2,3.6277335E2,1.5604381E3,4.9649025E1,4.0720043E1,4.1660805E1,2.1511328E3,8.1085434E1,8.4721E3,3.2072986E2,1.1282728E3,3.0743223E1],"tree_param":{"num_deleted":"0","num_feature":"15","num_nodes":"33","size_leaf_vector":"1"}},{"base_weights":[-6.0415667E-5,-2.9861098E-2,1.0125222E-1,-4.4870926E-3,-1.02984495E-1,-2.146693E-2,1.16566725E-1,-1.0466873E-1,4.994647E-2,1.2029373E-2,-1.1422458E0,-1.8194852E-3,1.782413E-1,3.9261006E-2,3.563767E-1,9.802783E-5,2.6792467E-2,-1.5253375E-1,-1.0632559E-1,1.7194713E-3,-1.3510416E-1,1.9414276E-2,-1.8142983E-2,6.259384E-3,-9.683325E-3,8.207957E-2,2.0778459E-2],"categories":[],"categories_nodes":[],"categories_segments":[],"categories_sizes":[],"default_left":[0,0,0,0,0,0,0,0,0,0,0,0,0,0,0,0,0,0,0,0,0,0,0,0,0,0,0],"id":35,"left_children":[1,3,-1,5,7,9,11,-1,13,15,17,19,21,23,25,-1,-1,-1,-1,-1,-1,-1,-1,-1,-1,-1,-1],"loss_changes":[4.6462515E2,2.7751549E1,0E0,2.2828695E1,5.5613416E2,3.6566693E2,9.975643E0,0E0,1.0846055E1,2.674197E1,6.9314575E0,1.2053786E1,5.1726856E0,1.0186821E1,7.533283E0,0E0,0E0,0E0,0E0,0E0,0E0,0E0,0E0,0E0,0E0,0E0,0E0],"parents":[2147483647,0,0,1,1,3,3,4,4,5,5,6,6,8,8,9,9,10,10,11,11,12,12,13,13,14,14],"right_children":[2,4,-1,6,8,10,12,-1,14,16,18,20,22,24,26,-1,-1,-1,-1,-1,-1,-1,-1,-1,-1,-1,-1],"split_conditions":[1.6823369E0,-5.9754467E-1,1.0125222E-1,2.50211E0,1.8515848E0,-4.3661246E-1,-6.087383E-1,-1.0466873E-1,2.4773183E0,1.5719167E0,-2.103737E0,5.5653775E-1,1.5972472E0,-4.3661246E-1,-9.006218E-1,9.802783E-5,2.6792467E-2,-1.5253375E-1,-1.0632559E-1,1.7194713E-3,-1.3510416E-1,1.9414276E-2,-1.8142983E-2,6.259384E-3,-9.683325E-3,8.207957E-2,2.0778459E-2],"split_indices":[3,14,0,9,14,9,1,0,1,7,8,2,7,9,4,0,0,0,0,0,0,0,0,0,0,0,0],"split_type":[0,0,0,0,0,0,0,0,0,0,0,0,0,0,0,0,0,0,0,0,0,0,0,0,0,0,0],"sum_hessian":[1.539535E4,1.4956155E4,4.391947E2,1.1104074E4,3.8520808E3,9.738858E3,1.3652162E3,5.363766E2,3.3157043E3,9.457203E3,2.816547E2,4.679475E2,8.9726874E2,3.205069E3,1.10635155E2,9.066723E3,3.904808E2,4.5016933E1,2.3663774E2,4.6241803E2,5.5294685E0,8.597198E2,3.754894E1,2.7364546E3,4.686146E2,2.5721083E1,8.491407E1],"tree_param":{"num_deleted":"0","num_feature":"15","num_nodes":"27","size_leaf_vector":"1"}},{"base_weights":[-1.8881631E-4,-2.7293565E-2,1.01086E-1,-5.617368E-2,3.01385E-2,3.3327062E-3,-1.0365738E-1,-3.1899687E-2,6.9873475E-2,-8.7432545E-3,1.3624276E-1,-6.652259E-2,1.7634197E-1,3.1797343E-1,3.9560996E-2,-1.9932657E-3,1.3996596E-2,1.2851042E-1,1.2696023E-2,-5.6792255E-3,-8.5906215E-2,2.4201415E-2,-1.6859947E-2,3.9680254E-2,1.9169062E-3,4.3311365E-2,3.0769901E-3],"categories":[],"categories_nodes":[],"categories_segments":[],"categories_sizes":[],"default_left":[0,0,0,0,0,0,0,0,0,0,0,0,0,0,0,0,0,0,0,0,0,0,0,0,0,0,0],"id":36,"left_children":[1,3,-1,5,7,9,-1,11,13,15,17,19,21,23,25,-1,-1,-1,-1,-1,-1,-1,-1,-1,-1,-1,-1],"loss_changes":[4.1882037E2,2.4689018E1,0E0,5.7781366E2,1.2280474E1,1.4989522E1,0E0,1.4037554E1,2.282358E1,1.424895E1,8.132225E0,1.2820026E1,6.329377E0,7.7762413E0,9.352409E0,0E0,0E0,0E0,0E0,0E0,0E0,0E0,0E0,0E0,0E0,0E0,0E0],"parents":[2147483647,0,0,1,1,3,3,4,4,5,5,7,7,8,8,9,9,10,10,11,11,12,12,13,13,14,14],"right_children":[2,4,-1,6,8,10,-1,12,14,16,18,20,22,24,26,-1,-1,-1,-1,-1,-1,-1,-1,-1,-1,-1,-1],"split_conditions":[1.6823369E0,1.4300877E0,1.01086E-1,-7.7561414E-1,-4.3552527E-1,1.6170868E0,-1.0365738E-1,1.1141404E0,-1.8725462E-1,1.6896238E0,-3.3069181E0,3.2809832E0,-6.381693E-1,6.562593E-1,-9.793339E-1,-1.9932657E-3,1.3996596E-2,1.2851042E-1,1.2696023E-2,-5.6792255E-3,-8.5906215E-2,2.4201415E-2,-1.6859947E-2,3.9680254E-2,1.9169062E-3,4.3311365E-2,3.0769901E-3],"split_indices":[3,13,0,13,7,5,0,5,7,4,0,0,7,1,1,0,0,0,0,0,0,0,0,0,0,0,0],"split_type":[0,0,0,0,0,0,0,0,0,0,0,0,0,0,0,0,0,0,0,0,0,0,0,0,0,0,0],"sum_hessian":[1.5281053E4,1.4883034E4,3.980195E2,9.903175E3,4.9798584E3,9.337427E3,5.657481E2,1.9443475E3,3.035511E3,8.560564E3,7.7686273E2,1.6677439E3,2.7660373E2,3.2946164E2,2.7060493E3,7.962318E3,5.9824664E2,5.1249437E0,7.717378E2,1.6485753E3,1.9168583E1,2.3261531E2,4.398842E1,2.6042868E2,6.903297E1,5.807177E1,2.6479775E3],"tree_param":{"num_deleted":"0","num_feature":"15","num_nodes":"27","size_leaf_vector":"1"}},{"base_weights":[-2.1664904E-4,-2.4835655E-2,1.009313E-1,-1.04351446E-1,-5.699915E-3,5.204033E-2,-1.0578032E-1,1.2854365E-1,-2.0360943E-2,1.47231E-1,2.2443978E-2,1.1259754E0,1.2206645E-1,-4.9996223E-2,8.090628E-2,8.037209E-2,1.3078655E-2,-1.4354163E-1,6.765938E-3,-1.1536109E-3,1.4097673E-1,1.3251132E-2,-6.379794E-2,-4.4734734E-3,-7.2160296E-2,4.2042892E-2,6.777124E-3],"categories":[],"categories_nodes":[],"categories_segments":[],"categories_sizes":[],"default_left":[0,0,0,0,0,0,0,0,0,0,0,0,0,0,0,0,0,0,0,0,0,0,0,0,0,0,0],"id":37,"left_children":[1,3,-1,5,7,9,-1,11,13,15,17,19,21,23,25,-1,-1,-1,-1,-1,-1,-1,-1,-1,-1,-1,-1],"loss_changes":[3.7758362E2,2.2565586E1,0E0,4.2900317E2,2.3531713E1,6.961824E0,0E0,7.4679947E0,3.2351902E1,6.223069E0,1.2448996E2,2.4289103E0,9.378525E0,2.9435307E1,1.0855707E1,0E0,0E0,0E0,0E0,0E0,0E0,0E0,0E0,0E0,0E0,0E0,0E0],"parents":[2147483647,0,0,1,1,3,3,4,4,5,5,7,7,8,8,9,9,10,10,11,11,12,12,13,13,14,14],"right_children":[2,4,-1,6,8,10,-1,12,14,16,18,20,22,24,26,-1,-1,-1,-1,-1,-1,-1,-1,-1,-1,-1,-1],"split_conditions":[1.6823369E0,5.219843E-1,1.009313E-1,-2.103737E0,-1.1730443E0,-4.3661246E-1,-1.0578032E-1,-4.7186112E0,7.641722E-1,-1.8736515E0,2.50211E0,-1.5573251E0,4.120744E-2,3.7515476E0,-9.6219844E-1,8.037209E-2,1.3078655E-2,-1.4354163E-1,6.765938E-3,-1.1536109E-3,1.4097673E-1,1.3251132E-2,-6.379794E-2,-4.4734734E-3,-7.2160296E-2,4.2042892E-2,6.777124E-3],"split_indices":[3,8,0,8,4,9,0,0,4,0,9,4,2,0,1,0,0,0,0,0,0,0,0,0,0,0,0],"split_type":[0,0,0,0,0,0,0,0,0,0,0,0,0,0,0,0,0,0,0,0,0,0,0,0,0,0,0],"sum_hessian":[1.5190292E4,1.4829624E4,3.6066885E2,2.8756838E3,1.1953939E4,2.4712737E3,4.0441006E2,1.1762107E3,1.07777295E4,5.851815E2,1.8860922E3,6.4737396E0,1.1697369E3,8.338129E3,2.4396E3,1.3130114E1,5.720514E2,5.5812366E1,1.8302798E3,1.4841666E0,4.989573E0,1.1546942E3,1.5042629E1,8.274372E3,6.3756363E1,8.971005E1,2.3498901E3],"tree_param":{"num_deleted":"0","num_feature":"15","num_nodes":"27","size_leaf_vector":"1"}},{"base_weights":[-2.2735987E-4,-2.2578163E-2,1.0078646E-1,-5.285993E-2,2.4808463E-2,7.902584E-3,-1.033231E-1,7.303692E-2,-2.2109572E-2,2.765755E-3,3.6900112E-1,3.197129E-1,6.069788E-2,8.388612E-1,-2.8730547E-2,-2.399887E-2,1.0508935E-3,1.40948845E-2,6.335254E-2,-7.016717E-3,4.7297735E-2,-1.3248369E-2,7.8789415E-3,1.041004E-1,-2.8949335E-2,-5.389267E-2,-1.7552593E-3],"categories":[],"categories_nodes":[],"categories_segments":[],"categories_sizes":[],"default_left":[0,0,0,0,0,0,0,0,0,0,0,0,0,0,0,0,0,0,0,0,0,0,0,0,0,0,0],"id":38,"left_children":[1,3,-1,5,7,9,-1,11,13,15,17,19,21,23,25,-1,-1,-1,-1,-1,-1,-1,-1,-1,-1,-1,-1],"loss_changes":[3.4050653E2,2.1216415E1,0E0,5.373631E2,1.3046476E1,1.5756602E1,0E0,8.634E0,1.6686268E1,1.5748659E1,7.098192E0,8.112148E0,9.477599E0,5.3967304E0,1.653826E1,0E0,0E0,0E0,0E0,0E0,0E0,0E0,0E0,0E0,0E0,0E0,0E0],"parents":[2147483647,0,0,1,1,3,3,4,4,5,5,7,7,8,8,9,9,10,10,11,11,12,12,13,13,14,14],"right_children":[2,4,-1,6,8,10,-1,12,14,16,18,20,22,24,26,-1,-1,-1,-1,-1,-1,-1,-1,-1,-1,-1,-1],"split_conditions":[1.6823369E0,1.2888968E0,1.0078646E-1,-8.6117613E-1,1.4091067E-2,3.1580315E0,-1.033231E-1,-9.45735E-1,-2.9758298E0,-1.2967512E-2,-4.254507E-2,-9.0400356E-1,-8.6375374E-1,7.8771734E-1,-1.2967512E-2,-2.399887E-2,1.0508935E-3,1.40948845E-2,6.335254E-2,-7.016717E-3,4.7297735E-2,-1.3248369E-2,7.8789415E-3,1.041004E-1,-2.8949335E-2,-5.389267E-2,-1.7552593E-3],"split_indices":[3,12,0,12,7,1,0,1,0,0,5,5,1,1,0,0,0,0,0,0,0,0,0,0,0,0,0],"split_type":[0,0,0,0,0,0,0,0,0,0,0,0,0,0,0,0,0,0,0,0,0,0,0,0,0,0,0],"sum_hessian":[1.5110348E4,1.4783553E4,3.2679437E2,9.019592E3,5.763961E3,8.494126E3,5.254663E2,2.8420134E3,2.9219473E3,8.37598E3,1.1814536E2,1.3420198E2,2.7078113E3,2.1339417E1,2.900608E3,2.5798438E2,8.117996E3,6.426978E1,5.387558E1,3.802209E1,9.617989E1,2.3133125E2,2.4764802E3,1.8162968E1,3.176449E0,6.117511E1,2.8394329E3],"tree_param":{"num_deleted":"0","num_feature":"15","num_nodes":"27","size_leaf_vector":"1"}},{"base_weights":[-2.6497865E-4,-2.0561513E-2,1.0064995E-1,-1.42021375E-2,-2.3499392E-1,-8.916061E-2,3.536643E-3,-9.150212E-1,-2.24761E-2,5.202601E-2,-1.0524484E-1,-9.149201E-3,1.5257251E-1,-1.5136339E-1,-5.982753E-1,4.372846E-1,-1.5920444E-1,6.970106E-3,-7.7949273E-3,-1.8706337E-3,2.1576403E-2,1.8970741E-2,-1.4511421E-2,-7.4106716E-3,-1.5226401E-1,9.905016E-2,2.8095184E-2,-1.4997862E-1,-6.7546167E-3],"categories":[],"categories_nodes":[],"categories_segments":[],"categories_sizes":[],"default_left":[0,0,0,0,0,0,0,0,0,0,0,0,0,0,0,0,0,0,0,0,0,0,0,0,0,0,0,0,0],"id":39,"left_children":[1,3,-1,5,7,9,11,13,15,17,-1,19,21,-1,23,25,27,-1,-1,-1,-1,-1,-1,-1,-1,-1,-1,-1,-1],"loss_changes":[3.071819E2,2.0091383E1,0E0,1.9031305E1,6.130824E1,3.7255737E2,2.1884907E1,1.8248299E1,2.0459007E1,5.4954658E0,0E0,2.293437E1,1.006505E1,0E0,3.2697117E1,6.1748657E0,3.0707855E1,0E0,0E0,0E0,0E0,0E0,0E0,0E0,0E0,0E0,0E0,0E0,0E0],"parents":[2147483647,0,0,1,1,3,3,4,4,5,5,6,6,7,7,8,8,9,9,11,11,12,12,14,14,15,15,16,16],"right_children":[2,4,-1,6,8,10,12,14,16,18,-1,20,22,-1,24,26,28,-1,-1,-1,-1,-1,-1,-1,-1,-1,-1,-1,-1],"split_conditions":[1.6823369E0,4.660051E-2,1.0064995E-1,5.219843E-1,9.2816126E-1,-2.103737E0,1.6498607E0,4.5759687E-1,9.340384E-1,1.2993921E0,-1.0524484E-1,2.0646482E0,1.3629401E0,-1.5136339E-1,5.0508016E-1,-1.8669146E-1,1.3987256E0,6.970106E-3,-7.7949273E-3,-1.8706337E-3,2.1576403E-2,1.8970741E-2,-1.4511421E-2,-7.4106716E-3,-1.5226401E-1,9.905016E-2,2.8095184E-2,-1.4997862E-1,-6.7546167E-3],"split_indices":[3,0,0,8,0,8,5,0,0,4,0,4,7,0,0,2,0,0,0,0,0,0,0,0,0,0,0,0,0],"split_type":[0,0,0,0,0,0,0,0,0,0,0,0,0,0,0,0,0,0,0,0,0,0,0,0,0,0,0,0,0],"sum_hessian":[1.5030992E4,1.4734913E4,2.960786E2,1.4311545E4,4.2336816E2,2.7379229E3,1.1573622E4,1.0001823E2,3.2334995E2,2.3887551E3,3.4916776E2,1.0666624E4,9.069981E2,3.3302223E1,6.6716E1,7.3615005E1,2.4973494E2,2.1032083E3,2.8554694E2,1.0232727E4,4.3389777E2,8.0672595E2,1.0027218E2,4.326334E1,2.3452662E1,1.5043724E1,5.857128E1,1.4998981E1,2.3473595E2],"tree_param":{"num_deleted":"0","num_feature":"15","num_nodes":"29","size_leaf_vector":"1"}},{"base_weights":[-2.9831508E-4,-1.8717207E-2,1.0052037E-1,2.3894932E-3,-8.060802E-2,1.08832486E-1,-1.2019393E-2,-1.0376276E-1,4.4334516E-2,1.1978179E-1,-5.7488686E-1,7.305585E-2,-3.1949133E-2,6.480898E-2,-7.712513E-2,1.2345608E-1,1.1393303E-2,6.712606E-2,-8.5029736E-2,9.646321E-2,6.3433186E-3,-4.26728E-3,2.148108E-2,4.0616088E-2,5.851356E-3,-1.13686435E-1,-1.213907E-3],"categories":[],"categories_nodes":[],"categories_segments":[],"categories_sizes":[],"default_left":[0,0,0,0,0,0,0,0,0,0,0,0,0,0,0,0,0,0,0,0,0,0,0,0,0,0,0],"id":40,"left_children":[1,3,-1,5,7,9,11,-1,13,15,17,19,21,23,25,-1,-1,-1,-1,-1,-1,-1,-1,-1,-1,-1,-1],"loss_changes":[2.771901E2,1.9199867E1,0E0,1.6812342E1,4.4697357E2,9.852972E0,1.6372606E1,0E0,8.229039E0,8.251804E0,7.6998887E0,1.5663022E1,2.0710625E1,6.058935E0,3.2871452E1,0E0,0E0,0E0,0E0,0E0,0E0,0E0,0E0,0E0,0E0,0E0,0E0],"parents":[2147483647,0,0,1,1,3,3,4,4,5,5,6,6,8,8,9,9,10,10,11,11,12,12,13,13,14,14],"right_children":[2,4,-1,6,8,10,12,-1,14,16,18,20,22,24,26,-1,-1,-1,-1,-1,-1,-1,-1,-1,-1,-1,-1],"split_conditions":[1.6823369E0,-5.9754467E-1,1.0052037E-1,-1.1142424E0,1.8515848E0,4.120744E-2,-1.0282655E0,-1.0376276E-1,-4.3661246E-1,-1.7147155E0,-2.3208008E0,1.7253745E-2,2.1331573E0,-2.3208008E0,2.50211E0,1.2345608E-1,1.1393303E-2,6.712606E-2,-8.5029736E-2,9.646321E-2,6.3433186E-3,-4.26728E-3,2.148108E-2,4.0616088E-2,5.851356E-3,-1.13686435E-1,-1.213907E-3],"split_indices":[3,14,0,4,14,2,5,0,9,7,0,2,4,0,9,0,0,0,0,0,0,0,0,0,0,0,0],"split_type":[0,0,0,0,0,0,0,0,0,0,0,0,0,0,0,0,0,0,0,0,0,0,0,0,0,0,0],"sum_hessian":[1.4964864E4,1.4696631E4,2.6823306E2,1.0959918E4,3.7367134E3,1.3059438E3,9.653974E3,4.3066364E2,3.3060496E3,1.2861715E3,1.9772364E1,1.8317992E3,7.8221743E3,2.8295403E3,4.7650943E2,5.6163177E0,1.2805552E3,3.318747E0,1.6453617E1,1.8499565E1,1.8132997E3,7.4971895E3,3.2498495E2,5.008893E1,2.7794514E3,2.6579464E1,4.4992996E2],"tree_param":{"num_deleted":"0","num_feature":"15","num_nodes":"27","size_leaf_vector":"1"}},{"base_weights":[-3.2120457E-4,-1.7046643E-2,1.0039635E-1,-1.1234402E-2,-2.1443407E-1,-2.0305188E-1,-4.798224E-3,-1.4517795E-1,-1.1155304E-1,-8.668257E-2,-1.5300533E-1,-7.7407956E-2,1.2212219E-2,9.4979304E-1,-1.6647226E-1,1.5293109E-2,-3.771561E-2,4.9670716E-3,-1.04711615E-1,-8.741145E-4,8.56361E-3,-4.0762838E-2,1.3581705E-1,-2.0452118E-2,1.1504904E-1],"categories":[],"categories_nodes":[],"categories_segments":[],"categories_sizes":[],"default_left":[0,0,0,0,0,0,0,0,0,0,0,0,0,0,0,0,0,0,0,0,0,0,0,0,0],"id":41,"left_children":[1,3,-1,5,7,9,11,-1,13,15,-1,17,19,21,23,-1,-1,-1,-1,-1,-1,-1,-1,-1,-1],"loss_changes":[2.5018532E2,1.6805624E1,0E0,1.7570112E1,5.317687E1,7.121446E1,1.7010468E1,0E0,2.2769417E1,2.9696472E1,0E0,3.2217957E2,1.7167786E1,1.1216103E1,1.8759966E1,0E0,0E0,0E0,0E0,0E0,0E0,0E0,0E0,0E0,0E0],"parents":[2147483647,0,0,1,1,3,3,4,4,5,5,6,6,8,8,9,9,11,11,12,12,13,13,14,14],"right_children":[2,4,-1,6,8,10,12,-1,14,16,-1,18,20,22,24,-1,-1,-1,-1,-1,-1,-1,-1,-1,-1],"split_conditions":[1.6823369E0,4.660051E-2,1.0039635E-1,-1.2967512E-2,4.5759687E-1,-4.751839E-1,5.219843E-1,-1.4517795E-1,-9.544707E-1,-2.3208008E0,-1.5300533E-1,-2.103737E0,7.117848E-1,-5.811756E-1,2.6032298E0,1.5293109E-2,-3.771561E-2,4.9670716E-3,-1.04711615E-1,-8.741145E-4,8.56361E-3,-4.0762838E-2,1.3581705E-1,-2.0452118E-2,1.1504904E-1],"split_indices":[3,0,0,0,0,0,8,0,1,0,0,8,5,7,1,0,0,0,0,0,0,0,0,0,0],"split_type":[0,0,0,0,0,0,0,0,0,0,0,0,0,0,0,0,0,0,0,0,0,0,0,0,0],"sum_hessian":[1.4892534E4,1.4649542E4,2.4299165E2,1.4231539E4,4.1800296E2,4.6102603E2,1.3770514E4,3.1081076E1,3.8692188E2,4.2483603E2,3.619001E1,2.6130515E3,1.1157462E4,1.8234528E1,3.6868735E2,2.3305818E2,1.9177785E2,2.3111304E3,3.0192108E2,8.681E3,2.4764624E3,4.2175345E0,1.4016993E1,3.5915555E2,9.531811E0],"tree_param":{"num_deleted":"0","num_feature":"15","num_nodes":"25","size_leaf_vector":"1"}},{"base_weights":[-3.3911783E-4,-1.5513784E-2,1.0027663E-1,5.0947394E-2,-3.239207E-2,4.438446E-2,5.2997535E-1,-6.479087E-2,2.672997E-2,5.0840374E-2,-4.3409905E-1,8.951731E-2,1.0303296E0,-6.0840555E-2,-5.86026E-1,2.0458467E-2,4.6830353E-1,2.3341328E-2,3.8069624E-3,-1.6627783E-3,-1.0229504E-1,6.6322654E-2,-8.0375046E-2,1.31031E-1,3.7753154E-2,3.1017214E-3,-8.244205E-3,-9.231632E-2,3.378839E-3,-8.050102E-3,4.473535E-3,2.4975482E-2,1.03146434E-1],"categories":[],"categories_nodes":[],"categories_segments":[],"categories_sizes":[],"default_left":[0,0,0,0,0,0,0,0,0,0,0,0,0,0,0,0,0,0,0,0,0,0,0,0,0,0,0,0,0,0,0,0,0],"id":42,"left_children":[1,3,-1,5,7,9,11,13,15,17,19,21,23,25,27,29,31,-1,-1,-1,-1,-1,-1,-1,-1,-1,-1,-1,-1,-1,-1,-1,-1],"loss_changes":[2.2585843E2,1.6397943E1,0E0,9.284185E0,2.233065E1,9.04736E0,8.706099E0,1.54703865E1,1.1420453E1,6.7147403E0,9.570549E0,1.1975241E1,2.9039917E0,1.4835293E1,1.1843475E1,9.980594E0,6.8504934E0,0E0,0E0,0E0,0E0,0E0,0E0,0E0,0E0,0E0,0E0,0E0,0E0,0E0,0E0,0E0,0E0],"parents":[2147483647,0,0,1,1,3,3,4,4,5,5,6,6,7,7,8,8,9,9,10,10,11,11,12,12,13,13,14,14,15,15,16,16],"right_children":[2,4,-1,6,8,10,12,14,16,18,20,22,24,26,28,30,32,-1,-1,-1,-1,-1,-1,-1,-1,-1,-1,-1,-1,-1,-1,-1,-1],"split_conditions":[1.6823369E0,-8.900999E-1,1.0027663E-1,1.3987256E0,4.6009257E-1,4.660051E-2,-1.1239432E-2,4.2038803E0,3.1580315E0,-1.5234349E0,-1.0905951E0,-3.1520543E-1,1.1096351E0,-1.0282655E0,-1.5046186E-2,5.219843E-1,1.4051096E0,2.3341328E-2,3.8069624E-3,-1.6627783E-3,-1.0229504E-1,6.6322654E-2,-8.0375046E-2,1.31031E-1,3.7753154E-2,3.1017214E-3,-8.244205E-3,-9.231632E-2,3.378839E-3,-8.050102E-3,4.473535E-3,2.4975482E-2,1.03146434E-1],"split_indices":[3,4,0,0,4,0,7,0,1,4,4,7,7,5,1,8,13,0,0,0,0,0,0,0,0,0,0,0,0,0,0,0,0],"split_type":[0,0,0,0,0,0,0,0,0,0,0,0,0,0,0,0,0,0,0,0,0,0,0,0,0,0,0,0,0,0,0,0,0],"sum_hessian":[1.4835815E4,1.4615698E4,2.2011722E2,2.9596287E3,1.1656069E4,2.920706E3,3.8922543E1,7.5297056E3,4.1263643E3,2.882705E3,3.8001003E1,2.1327238E1,1.7595303E1,7.4741772E3,5.5528233E1,4.0696113E3,5.6752827E1,1.873297E2,2.6953755E3,2.2838026E1,1.5162977E1,1.3143339E1,8.1839E0,1.1609044E1,5.986259E0,1.4229247E3,6.0512524E3,3.5648457E1,1.9879776E1,7.88439E2,3.2811724E3,4.192591E1,1.4826917E1],"tree_param":{"num_deleted":"0","num_feature":"15","num_nodes":"33","size_leaf_vector":"1"}},{"base_weights":[-2.2645642E-4,-1.3967793E-2,1.0016E-1,5.321522E-3,-7.1136795E-2,-2.7911486E-3,1.6695768E-1,-1.03354335E-1,4.155164E-2,-1.0595008E-2,1.7241862E-1,1.8141462E-1,-4.92285E-1,3.283624E-2,2.924981E-1,-2.6423887E-3,1.0215271E-2,1.5062869E-1,1.4288678E-2,1.10166095E-1,1.6901722E-2,-6.56478E-2,4.7936402E-2,3.948401E-3,-2.907986E-2,7.152603E-2,1.5906777E-2],"categories":[],"categories_nodes":[],"categories_segments":[],"categories_sizes":[],"default_left":[0,0,0,0,0,0,0,0,0,0,0,0,0,0,0,0,0,0,0,0,0,0,0,0,0,0,0],"id":43,"left_children":[1,3,-1,5,7,9,11,-1,13,15,17,19,21,23,25,-1,-1,-1,-1,-1,-1,-1,-1,-1,-1,-1,-1],"loss_changes":[2.0388441E2,1.6111399E1,0E0,1.4326331E1,3.9978864E2,1.422705E1,5.0656548E0,0E0,7.208986E0,1.7779974E1,1.7262203E1,5.6512547E0,2.145223E0,6.876504E0,6.1281376E0,0E0,0E0,0E0,0E0,0E0,0E0,0E0,0E0,0E0,0E0,0E0,0E0],"parents":[2147483647,0,0,1,1,3,3,4,4,5,5,6,6,8,8,9,9,10,10,11,11,12,12,13,13,14,14],"right_children":[2,4,-1,6,8,10,12,-1,14,16,18,20,22,24,26,-1,-1,-1,-1,-1,-1,-1,-1,-1,-1,-1,-1],"split_conditions":[1.6823369E0,-5.9754467E-1,1.0016E-1,2.0500484E0,1.8515848E0,1.5719167E0,-1.2409024E-1,-1.03354335E-1,2.4773183E0,2.50211E0,-4.751839E-1,-2.3208008E0,8.628924E-1,9.340384E-1,-9.006218E-1,-2.6423887E-3,1.0215271E-2,1.5062869E-1,1.4288678E-2,1.10166095E-1,1.6901722E-2,-6.56478E-2,4.7936402E-2,3.948401E-3,-2.907986E-2,7.152603E-2,1.5906777E-2],"split_indices":[3,14,0,5,14,7,11,0,1,9,0,0,1,0,4,0,0,0,0,0,0,0,0,0,0,0,0],"split_type":[0,0,0,0,0,0,0,0,0,0,0,0,0,0,0,0,0,0,0,0,0,0,0,0,0,0,0],"sum_hessian":[1.4808239E4,1.4608846E4,1.9939302E2,1.0923926E4,3.68492E3,1.0402783E4,5.211427E2,3.853864E2,3.2995334E3,9.9601E3,4.426842E2,5.1066876E2,1.0473952E1,3.1898794E3,1.09653984E2,8.734598E3,1.225502E3,8.505595E0,4.3417862E2,5.6202593E0,5.0504852E2,9.237356E0,1.236597E0,3.1265354E3,6.3344067E1,2.5259848E1,8.4394135E1],"tree_param":{"num_deleted":"0","num_feature":"15","num_nodes":"27","size_leaf_vector":"1"}},{"base_weights":[-2.4192812E-4,-1.27156805E-2,1.000453E-1,-3.566098E-2,3.201838E-2,9.9760145E-3,-1.0271269E-1,-2.7871074E-2,6.4274676E-2,2.3372132E-2,-7.132778E-2,-6.3346565E-2,1.8588723E-1,1.8373317E-1,3.9028425E-2,2.1647508E-3,7.885615E-2,-1.12773076E-1,4.2737834E-3,8.395711E-3,-1.2832041E-2,-5.7019617E-2,2.1176437E-2,7.639669E-3,3.4427818E-2,9.421253E-2,3.6059562E-3],"categories":[],"categories_nodes":[],"categories_segments":[],"categories_sizes":[],"default_left":[0,0,0,0,0,0,0,0,0,0,0,0,0,0,0,0,0,0,0,0,0,0,0,0,0,0,0],"id":44,"left_children":[1,3,-1,5,7,9,-1,11,13,15,17,19,21,23,25,-1,-1,-1,-1,-1,-1,-1,-1,-1,-1,-1,-1],"loss_changes":[1.8413574E2,1.4956289E1,0E0,4.3577982E2,9.545284E0,1.0030596E1,0E0,1.3131002E1,9.67722E0,1.0416454E1,1.5703413E2,1.42191105E1,4.9436913E0,9.623259E0,7.076937E0,0E0,0E0,0E0,0E0,0E0,0E0,0E0,0E0,0E0,0E0,0E0,0E0],"parents":[2147483647,0,0,1,1,3,3,4,4,5,5,7,7,8,8,9,9,10,10,11,11,12,12,13,13,14,14],"right_children":[2,4,-1,6,8,10,-1,12,14,16,18,20,22,24,26,-1,-1,-1,-1,-1,-1,-1,-1,-1,-1,-1,-1],"split_conditions":[1.6823369E0,1.4300877E0,1.000453E-1,-7.7561414E-1,-5.685104E-1,-4.3661246E-1,-1.0271269E-1,1.1141404E0,-1.568898E-1,1.0630643E0,2.50211E0,-1.3641421E0,-9.74966E-1,-3.2787067E-1,-9.991572E-1,2.1647508E-3,7.885615E-2,-1.12773076E-1,4.2737834E-3,8.395711E-3,-1.2832041E-2,-5.7019617E-2,2.1176437E-2,7.639669E-3,3.4427818E-2,9.421253E-2,3.6059562E-3],"split_indices":[3,13,0,13,7,9,0,5,7,2,9,7,1,7,1,0,0,0,0,0,0,0,0,0,0,0,0],"split_type":[0,0,0,0,0,0,0,0,0,0,0,0,0,0,0,0,0,0,0,0,0,0,0,0,0,0,0],"sum_hessian":[1.4749587E4,1.4568971E4,1.8061624E2,9.629794E3,4.939177E3,9.206988E3,4.2280603E2,1.7290426E3,3.210134E3,7.9051924E3,1.3017959E3,1.4835374E3,2.4550533E2,5.589682E2,2.6511658E3,7.8884414E3,1.6751108E1,1.2599782E2,1.1757981E3,4.5399127E2,1.029546E3,7.428321E0,2.38077E2,3.358817E2,2.2308647E2,7.6504283E0,2.6435154E3],"tree_param":{"num_deleted":"0","num_feature":"15","num_nodes":"27","size_leaf_vector":"1"}},{"base_weights":[-3.37749E-4,-1.167011E-2,9.9931344E-2,-1.8595088E-1,-6.023057E-3,-8.054087E-2,-1.4702623E-1,-7.093534E-2,8.976759E-3,1.331109E-1,-3.4277943E-1,3.7476193E-2,-1.0409515E-1,1.21174855E-2,-4.1856074E-1,8.3101906E-2,2.1904386E-3,-3.9428424E-2,1.651014E-1,5.626947E-3,-1.0921175E-2,1.5011096E-2,3.8082612E-4,-6.477895E-2,5.7815272E-2],"categories":[],"categories_nodes":[],"categories_segments":[],"categories_sizes":[],"default_left":[0,0,0,0,0,0,0,0,0,0,0,0,0,0,0,0,0,0,0,0,0,0,0,0,0],"id":45,"left_children":[1,3,-1,5,7,9,-1,11,13,15,17,19,-1,21,23,-1,-1,-1,-1,-1,-1,-1,-1,-1,-1],"loss_changes":[1.6635542E2,1.4289231E1,0E0,6.1571655E1,1.36958065E1,2.3699303E1,0E0,2.776911E2,1.5347957E1,1.8093376E1,2.0143293E1,6.555641E0,0E0,1.3006522E1,1.941886E1,0E0,0E0,0E0,0E0,0E0,0E0,0E0,0E0,0E0,0E0],"parents":[2147483647,0,0,1,1,3,3,4,4,5,5,7,7,8,8,9,9,10,10,11,11,13,13,14,14],"right_children":[2,4,-1,6,8,10,-1,12,14,16,18,20,-1,22,24,-1,-1,-1,-1,-1,-1,-1,-1,-1,-1],"split_conditions":[1.6823369E0,-1.2967512E-2,9.9931344E-2,-4.751839E-1,5.219843E-1,-2.3208008E0,-1.4702623E-1,-2.103737E0,3.7515476E0,-1.265099E0,3.1580315E0,1.3629401E0,-1.0409515E-1,-1.3149637E0,1.35848055E1,8.3101906E-2,2.1904386E-3,-3.9428424E-2,1.651014E-1,5.626947E-3,-1.0921175E-2,1.5011096E-2,3.8082612E-4,-6.477895E-2,5.7815272E-2],"split_indices":[3,0,0,0,8,0,0,8,0,7,1,7,0,4,0,0,0,0,0,0,0,0,0,0,0],"split_type":[0,0,0,0,0,0,0,0,0,0,0,0,0,0,0,0,0,0,0,0,0,0,0,0,0],"sum_hessian":[1.4682771E4,1.4519166E4,1.6360551E2,4.5468347E2,1.4064482E4,4.2117795E2,3.350552E1,2.639259E3,1.1425224E4,2.3236073E2,1.8881721E2,2.374806E3,2.6445312E2,1.1342869E4,8.235402E1,3.1046545E1,2.013142E2,1.8484445E2,3.9727643E0,2.1056516E3,2.691542E2,6.4324615E2,1.0699623E4,6.7239944E1,1.5114077E1],"tree_param":{"num_deleted":"0","num_feature":"15","num_nodes":"25","size_leaf_vector":"1"}},{"base_weights":[-3.4755477E-4,-1.0628275E-2,9.981706E-2,6.3929246E-3,-6.16825E-2,1.7206066E-3,2.2172126E-1,-1.02826476E-1,3.527491E-2,-5.3974297E-3,1.6153122E-1,2.452127E-1,-7.176864E-1,5.257566E-2,-6.894985E-2,-2.106824E-2,1.2916335E-4,1.4094352E-2,1.83591E-1,4.539788E-2,1.6268974E-2,6.785519E-2,-1.3047184E-1,4.9487804E-3,6.711765E-2,-1.11390404E-1,-2.1082365E-3],"categories":[],"categories_nodes":[],"categories_segments":[],"categories_sizes":[],"default_left":[0,0,0,0,0,0,0,0,0,0,0,0,0,0,0,0,0,0,0,0,0,0,0,0,0,0,0],"id":46,"left_children":[1,3,-1,5,7,9,11,-1,13,15,17,19,21,23,25,-1,-1,-1,-1,-1,-1,-1,-1,-1,-1,-1,-1],"loss_changes":[1.502874E2,1.2592993E1,0E0,1.0934261E1,3.3960245E2,1.2102818E1,5.2696333E0,0E0,5.9431663E0,1.3987375E1,1.5380324E1,3.8184576E0,5.709511E0,5.3640695E0,2.3454071E1,0E0,0E0,0E0,0E0,0E0,0E0,0E0,0E0,0E0,0E0,0E0,0E0],"parents":[2147483647,0,0,1,1,3,3,4,4,5,5,6,6,8,8,9,9,10,10,11,11,12,12,13,13,14,14],"right_children":[2,4,-1,6,8,10,12,-1,14,16,18,20,22,24,26,-1,-1,-1,-1,-1,-1,-1,-1,-1,-1,-1,-1],"split_conditions":[1.6823369E0,-5.9754467E-1,9.981706E-2,2.6427095E0,1.8515848E0,1.5719167E0,4.660051E-2,-1.02826476E-1,-4.3661246E-1,-1.2967512E-2,3.8729116E-1,-7.463945E-1,-6.141141E-1,4.469847E0,2.50211E0,-2.106824E-2,1.2916335E-4,1.4094352E-2,1.83591E-1,4.539788E-2,1.6268974E-2,6.785519E-2,-1.3047184E-1,4.9487804E-3,6.711765E-2,-1.11390404E-1,-2.1082365E-3],"split_indices":[3,14,0,5,14,7,0,0,9,0,2,4,1,1,9,0,0,0,0,0,0,0,0,0,0,0,0],"split_type":[0,0,0,0,0,0,0,0,0,0,0,0,0,0,0,0,0,0,0,0,0,0,0,0,0,0,0],"sum_hessian":[1.4638036E4,1.4489838E4,1.481977E2,1.0867536E4,3.6223022E3,1.0637721E4,2.298154E2,3.293509E2,3.2929514E3,1.018504E4,4.5268E2,2.2492963E2,4.8857694E0,2.8245818E3,4.6836972E2,3.204373E2,9.864604E3,4.482526E2,4.427417E0,6.2447952E1,1.6248167E2,1.4000022E0,3.485767E0,2.811627E3,1.2954736E1,1.9539913E1,4.488298E2],"tree_param":{"num_deleted":"0","num_feature":"15","num_nodes":"27","size_leaf_vector":"1"}},{"base_weights":[-3.7180824E-4,-9.701991E-3,9.970133E-2,-3.2455742E-2,2.5082234E-2,1.2375016E-2,-1.0232494E-1,6.669781E-2,-1.878463E-2,8.290584E-3,2.9973006E-1,1.0432037E0,6.403252E-2,-2.3648617E-1,8.728789E-3,1.160209E-3,-3.9092906E-2,1.4391556E-1,2.5300896E-2,-1.255922E-2,1.33067E-1,6.7405724E-3,-6.2486637E-2,7.85508E-2,-2.6554568E-2,3.8915712E-3,-1.39800785E-2],"categories":[],"categories_nodes":[],"categories_segments":[],"categories_sizes":[],"default_left":[0,0,0,0,0,0,0,0,0,0,0,0,0,0,0,0,0,0,0,0,0,0,0,0,0,0,0],"id":47,"left_children":[1,3,-1,5,7,9,-1,11,13,15,17,19,21,23,25,-1,-1,-1,-1,-1,-1,-1,-1,-1,-1,-1,-1],"loss_changes":[1.357986E2,1.1443621E1,0E0,3.8825772E2,1.0439583E1,9.813398E0,0E0,7.570691E0,1.6680115E1,1.0907404E1,5.874031E0,2.828905E0,6.8451605E0,9.488054E0,1.1093485E1,0E0,0E0,0E0,0E0,0E0,0E0,0E0,0E0,0E0,0E0,0E0,0E0],"parents":[2147483647,0,0,1,1,3,3,4,4,5,5,7,7,8,8,9,9,10,10,11,11,12,12,13,13,14,14],"right_children":[2,4,-1,6,8,10,-1,12,14,16,18,20,22,24,26,-1,-1,-1,-1,-1,-1,-1,-1,-1,-1,-1,-1],"split_conditions":[1.6823369E0,1.2888968E0,9.970133E-2,-8.6117613E-1,7.7417314E-2,3.1580315E0,-1.0232494E-1,-9.991572E-1,2.547308E-1,3.7515476E0,-9.01621E-1,-1.1730443E0,6.3809004E0,-9.7093415E-1,8.1283003E-1,1.160209E-3,-3.9092906E-2,1.4391556E-1,2.5300896E-2,-1.255922E-2,1.33067E-1,6.7405724E-3,-6.2486637E-2,7.85508E-2,-2.6554568E-2,3.8915712E-3,-1.39800785E-2],"split_indices":[3,12,0,12,7,1,0,1,7,0,0,4,0,1,1,0,0,0,0,0,0,0,0,0,0,0,0],"split_type":[0,0,0,0,0,0,0,0,0,0,0,0,0,0,0,0,0,0,0,0,0,0,0,0,0,0,0],"sum_hessian":[1.4590882E4,1.4456635E4,1.3424641E2,8.739709E3,5.716926E3,8.362324E3,3.7738525E2,2.9334768E3,2.783449E3,8.246144E3,1.16180885E2,6.9222226E0,2.9265547E3,3.1145416E2,2.4719946E3,8.1792676E3,6.6875626E1,3.402332E0,1.1277855E2,1.4776049E0,5.4446177E0,2.9131924E3,1.3362336E1,7.8913727E0,3.035628E2,2.0550645E3,4.1693018E2],"tree_param":{"num_deleted":"0","num_feature":"15","num_nodes":"27","size_leaf_vector":"1"}},{"base_weights":[-4.025595E-4,-8.871633E-3,9.958296E-2,2.1166308E-3,-7.6255314E-2,1.3326181E0,1.1804232E-3,-1.1110768E0,4.3297507E-2,5.996723E-2,1.4795876E0,-1.5779324E-2,6.668685E-2,-1.3620959E-1,-1.02842204E-1,6.606758E-2,-1.493308E-1,4.6411026E-2,1.6133355E-1,6.61423E-3,-3.7925527E-3,3.836477E-2,5.56935E-3,-3.9570924E-2,7.287738E-3,-4.1200756E-3,-3.8157716E-2],"categories":[],"categories_nodes":[],"categories_segments":[],"categories_sizes":[],"default_left":[0,0,0,0,0,0,0,0,0,0,0,0,0,0,0,0,0,0,0,0,0,0,0,0,0,0,0],"id":48,"left_children":[1,3,-1,5,7,9,11,13,15,-1,17,19,21,-1,-1,23,25,-1,-1,-1,-1,-1,-1,-1,-1,-1,-1],"loss_changes":[1.2271837E2,1.0678881E1,0E0,1.5445674E1,2.5021791E2,5.195713E-2,1.3769862E1,2.9450684E0,7.964924E0,0E0,1.4508533E-1,1.7864697E1,8.860515E0,0E0,0E0,5.131405E0,4.8067584E0,0E0,0E0,0E0,0E0,0E0,0E0,0E0,0E0,0E0,0E0],"parents":[2147483647,0,0,1,1,3,3,4,4,5,5,6,6,7,7,8,8,10,10,11,11,12,12,15,15,16,16],"right_children":[2,4,-1,6,8,10,12,14,16,-1,18,20,22,-1,-1,24,26,-1,-1,-1,-1,-1,-1,-1,-1,-1,-1],"split_conditions":[1.6823369E0,-4.3661246E-1,9.958296E-2,-7.541998E0,2.50211E0,-2.2964007E-1,7.641722E-1,-2.103737E0,1.3882706E0,5.996723E-2,-8.049557E-1,-9.806797E-1,-9.662303E-1,-1.3620959E-1,-1.02842204E-1,-2.4375868E0,1.8903904E-1,4.6411026E-2,1.6133355E-1,6.61423E-3,-3.7925527E-3,3.836477E-2,5.56935E-3,-3.9570924E-2,7.287738E-3,-4.1200756E-3,-3.8157716E-2],"split_indices":[3,9,0,0,9,2,4,8,7,0,1,4,1,0,0,0,1,0,0,0,0,0,0,0,0,0,0],"split_type":[0,0,0,0,0,0,0,0,0,0,0,0,0,0,0,0,0,0,0,0,0,0,0,0,0,0,0],"sum_hessian":[1.4542934E4,1.4421327E4,1.2160612E2,1.2400194E4,2.0211324E3,7.7190814E0,1.2392476E4,2.0845973E2,1.8126727E3,2.1378314E0,5.5812497E0,9.8444795E3,2.5479966E3,4.7803455E1,1.6065627E2,1.6216401E3,1.9103265E2,1.1697785E0,4.4114714E0,2.0945361E3,7.749943E3,8.427506E1,2.4637217E3,2.273677E1,1.5989033E3,1.3114917E2,5.9883476E1],"tree_param":{"num_deleted":"0","num_feature":"15","num_nodes":"27","size_leaf_vector":"1"}},{"base_weights":[-3.8334634E-4,-8.063869E-3,9.946093E-2,-2.7326265E-2,2.9024987E-2,9.757893E-3,-1.02128565E-1,-2.0992061E-2,6.098298E-2,-3.6443786E-3,6.891859E-2,9.188226E-2,-6.4337835E-2,2.844682E-1,3.7434377E-2,-1.2486392E-3,1.12307435E-2,-3.7323073E-2,8.179048E-3,3.7676256E-2,2.7133475E-4,-1.4675507E-2,1.7144422E-3,3.8603052E-2,-9.687582E-3,5.284012E-2,3.205194E-3],"categories":[],"categories_nodes":[],"categories_segments":[],"categories_sizes":[],"default_left":[0,0,0,0,0,0,0,0,0,0,0,0,0,0,0,0,0,0,0,0,0,0,0,0,0,0,0],"id":49,"left_children":[1,3,-1,5,7,9,-1,11,13,15,17,19,21,23,25,-1,-1,-1,-1,-1,-1,-1,-1,-1,-1,-1,-1],"loss_changes":[1.1090361E2,1.0289192E1,0E0,3.494033E2,7.8706727E0,7.2464128E0,0E0,9.399937E0,1.5799319E1,7.6414948E0,9.637434E0,1.3542484E1,9.3228855E0,1.1122641E1,7.16803E0,0E0,0E0,0E0,0E0,0E0,0E0,0E0,0E0,0E0,0E0,0E0,0E0],"parents":[2147483647,0,0,1,1,3,3,4,4,5,5,7,7,8,8,9,9,10,10,11,11,12,12,13,13,14,14],"right_children":[2,4,-1,6,8,10,